function [Y,Xf,Af] = myNeuralNetworkFunction(X,~,~)
%MYNEURALNETWORKFUNCTION neural network simulation function.
%
% Auto-generated by MATLAB, 20-Dec-2018 19:51:49.
%
% [Y] = myNeuralNetworkFunction(X,~,~) takes these arguments:
%
%   X = 1xTS cell, 1 inputs over TS timesteps
%   Each X{1,ts} = Qx91 matrix, input #1 at timestep ts.
%
% and returns:
%   Y = 1xTS cell of 1 outputs over TS timesteps.
%   Each Y{1,ts} = Qx5 matrix, output #1 at timestep ts.
%
% where Q is number of samples (or series) and TS is the number of timesteps.

%#ok<*RPMT0>

% ===== NEURAL NETWORK CONSTANTS =====

% Input 1
x1_step1.xoffset = [-130;-338;-3617;-423;-286;-122;-120;-360;-3261;-215;-243;-49;-132;-367;-3281;-231;-238;-49;-101;-364;-3292;-221;-232;-88;-238;-368;-3348;-824;-725;-128;-262;-320;-3051;-131;-182;-162;-389;-382;-3557;-137;-358;-91;-262;-331;-2795;-237;-492;-150;-389;-330;-2792;-169;-487;-83;-139;-328;-2788;-147;-498;-89;-492;-364;-3234;-287;-576;-199;-883;-364;-3451;-287;-568;-233;-851;-352;-3275;-284;-508;-197;-480;-343;-3226;-285;-567;-248;-497;-343;-2955;-381;-499;-91;-91];
x1_step1.gain = [0.0041407867494824;0.00395256916996047;0.000502765208647562;0.00222469410456062;0.00191938579654511;0.00738007380073801;0.00437636761487965;0.00359066427289048;0.000589622641509434;0.0024390243902439;0.0045662100456621;0.0108695652173913;0.00431965442764579;0.0031104199066874;0.000585994726047466;0.00235017626321974;0.00280112044817927;0.0103626943005181;0.0045662100456621;0.00278551532033426;0.000588408355398647;0.00253807106598985;0.0028735632183908;0.00803212851405622;0.0033955857385399;0.00248138957816377;0.000578871201157742;0.00147058823529412;0.0017683465959328;0.0060790273556231;0.00421052631578947;0.00348432055749129;0.000576535024502739;0.00227790432801822;0.00355239786856128;0.00492610837438424;0.00332225913621262;0.00422832980972516;0.000543035568829758;0.0048780487804878;0.00392927308447937;0.0163934426229508;0.00408997955010225;0.00421940928270042;0.000691562932226833;0.0051150895140665;0.00250941028858218;0.0119047619047619;0.00288184438040346;0.00475059382422803;0.000679578661230037;0.0050761421319797;0.00289855072463768;0.0116959064327485;0.00573065902578797;0.00523560209424084;0.000695168578380257;0.00769230769230769;0.00277392510402219;0.0161290322580645;0.00212765957446809;0.00484261501210654;0.000600961538461538;0.00333333333333333;0.00243013365735115;0.00796812749003984;0.00148920327624721;0.00466200466200466;0.000550964187327824;0.00153491941673062;0.00206185567010309;0.00677966101694915;0.00152322924600152;0.00435729847494553;0.000588062334607468;0.00302571860816944;0.00231749710312862;0.00803212851405622;0.00212765957446809;0.003690036900369;0.000602772754671489;0.00245098039215686;0.00237812128418549;0.00634920634920635;0.00245700245700246;0.00341880341880342;0.000655737704918033;0.00237247924080664;0.00279329608938547;0.0123456790123457;0.0123456790123457];
x1_step1.ymin = -1;

% Layer 1
b1 = [1.4753624706426051727;1.4419933833170324178;1.407532521804511827;1.3810705495064168336;1.3575973299353552015;-1.3251476957687016167;-1.2908846991019888861;-1.2646353474504288261;-1.2377902280035963933;1.2126780163452668404;-1.1643585264446041361;1.1575986635403900937;1.1151926103427367565;-1.0785189148967879724;-1.0678683578548371358;-1.0268649407810934715;0.98781549740131224802;0.95889531164977648281;-0.94639462430531862136;0.91640045937262260001;0.87376506278267307426;0.84267810023268796549;0.82022894592919093348;0.79742219794856128434;0.74346356218664944038;-0.73250380011596427643;0.68279182234523838613;-0.6814041720268670943;-0.61187627160865365461;0.60495683674697542376;0.58898368104233123077;-0.54955866058467517377;-0.5236841722162917101;0.50341014871184142088;-0.45284374269301186366;-0.42989723802560475541;0.4027237875044185067;-0.36156365389567318713;0.3561059841545436977;0.31024248746169319491;0.2961955594098095168;-0.26965363991097962559;-0.22597859667694586427;-0.19326396230476600158;-0.16414520794386525115;0.13378513112490239556;0.10548267787330140033;-0.071152052585280636809;0.054839646715558722223;0.0069898430474903405774;0.020453085368728345789;0.055075037147289389317;0.067272099942355501057;-0.10598563267962249346;-0.15294886268094254334;0.13140476424512917419;0.19870301614226290599;-0.20058735529455540281;-0.258604350622264334;0.28199085461503636818;0.3097454969984923534;0.34649736189009827658;0.37296628809133242077;-0.39689425538131217763;-0.43718579321442585517;-0.45469548951829907857;0.47645122872922751611;-0.5164423974464465994;-0.54028450528318061608;-0.5830331961255209583;0.61333553918788119574;-0.64137815505201134503;0.65307394988304157124;-0.69366624505950558177;0.74556235397822023803;0.74783476633020506963;-0.78709525839442318063;0.81025770688291776089;-0.8712200060695626247;0.8694375400065466053;-0.91510055343341190071;0.95187520264527336611;0.95429366187883113426;0.99630568195405522225;-1.0164875624995504122;-1.0468930835218768216;1.0689923573673163482;1.1316954187293872813;1.1679712541776312573;1.1771817241989945835;-1.2018016508576951917;-1.2388136000471920983;1.2672073807452475247;-1.2895791902663951145;-1.3219685143710659947;1.356592396197390471;-1.3814425368405396366;-1.4034315180840950532;1.4284201120586361711;1.4743900708190529336];
IW1_1 = [-0.12345600061516960599 -0.18271767303507366331 -0.12362163596980585423 0.038444602911918507315 -0.11830279061812323804 -0.0019576004768288241334 0.24770357002635887134 -0.13489974673192167698 -0.22224607758642667132 0.11648170839349811234 -0.1465604077020964402 0.04474046477716728254 0.12814414904832466258 -0.22004241715439093463 -0.17197310095856083167 0.21732179505347726245 0.26150257514753361132 0.018511229148931451077 -0.18477369928250181319 0.047754189750858745678 -0.11421037526936853035 -0.1989918008459629073 -0.12177265261406247654 -0.2171145122285082496 0.13866597429719199064 0.066034464244967519542 0.27706779653846846934 -0.049030111570689045852 -0.046939385526078736266 -0.1789595989471735038 0.25604796536188245693 -0.13117873703887553138 -0.025284294783483075852 0.011091356917303462487 -0.040163147477416012709 -0.10854046286196444848 -0.15785225301488448046 -0.25105381875496030064 0.14879296591898630298 -0.060817916194624663251 -0.042240284712178416404 0.27704571638776970266 0.039710250333948204915 0.23624718124195059898 -0.030030501043291038532 -0.099284513517038625041 0.075284492547617237745 -0.21299978600522756489 0.2306128683058533968 0.13056979668570653508 -0.22082561572845660347 0.17320100821224518328 0.18491463562088844563 -0.13250381915082345974 0.21583724320032868227 0.099253808206088922628 -0.049912534258291035849 -0.12711922295133445959 -0.014850609872522320745 0.25152432064038332538 -0.081188396611146809723 0.11515314208109153626 -0.10600284819921837465 -0.15320177112339594672 0.20947869375201841335 -0.19876768536299732615 -0.0030723775366032486482 -0.081376370702256520251 -0.094129715076693043496 -0.10319774759660170493 0.19531200937570572518 -0.0804328498303501227 0.241558723678178211 -0.23162044302154580211 -0.086252140694264553544 -0.06658305727342987701 0.25451604455413640027 -0.049125524372747225721 -0.15976970289921541002 -0.046870216775076016524 0.14031198789217602663 -0.2119149855954309547 -0.050069648524880439044 0.21988255793218286493 -0.19003972880357428155 0.15859796555391403317 -0.16195561247549855599 0.12150584366255241797 -0.12362230654876252278 -0.10260261893344882478 -0.050037838481056515216;-0.13432233641025861925 -0.21754372609570557517 0.024936633362179216888 0.1736082313352682871 0.23785687763840540621 -0.19148441848274580512 0.1456750654607679718 -0.19305177618115829108 -0.13568576561343057008 -0.055585129325637930298 -0.0026944959915894796734 -0.26431266036055650615 0.13791862787593095474 0.2561871744973180931 0.0087209802687357070028 0.0040681136478265614298 0.088706235900622210089 0.13401933456378833931 -0.213581935017465252 -0.11292693084653557256 0.11319277730904116208 -0.16394456431954593234 0.013333298155685752856 -0.13009792087114782633 0.049812425554633478486 -0.19938326091620617309 0.090051617629785390973 -0.26142503762555274749 -0.0018962260882692907361 -0.059606095437465214659 -0.02094630305948643953 0.2228468189360057472 0.13856240771636474385 0.22092627855537086412 0.14625429453344929165 0.06287089694659094008 -0.17527267597584406111 -0.17711170426143357792 -0.0030459022274889530936 0.038485278486579121981 0.15666901782760586648 -0.18513039321635119117 0.12894299705063771988 -0.26752561686329934254 0.27013724948792217084 -0.063204687641806561738 -0.077224139978205721957 0.25575622881807869025 0.22594338731845223234 0.12360250849465756473 0.17253235295884672418 0.06366271788592260672 -0.026493618352954332457 0.21477876583056151882 0.17921021581858681548 -0.14358724540859263419 -0.0029918793816423529426 -0.068640459308619491963 0.21566354813808091828 0.16779573386825158421 -0.2349438807275927299 0.18487135070395763203 0.19547719618678838227 -0.14758456643082151771 0.028484104767383975482 -0.15765212038378975667 -0.25312922013988464753 0.25318887511249887901 -0.038065336035943433957 0.038750562723941353593 0.088940907876367686358 0.05929350521582082284 -0.020106797476615586445 -0.056769032356624574143 0.064503489198520447268 -0.12730418293023812448 -0.17004018182366253953 -0.26351569298641530636 -0.19158249441487634757 0.10266503286500190673 0.11335381489462707794 0.12747980771448352844 0.047756932989731985806 -0.25336334241728719618 0.12193383995232602579 0.039138629723077779377 0.068936140663565598219 -0.20358998397707422923 0.047069548777875121204 0.13195293771414137729 0.18325530468801376482;-0.23057163110421030616 -0.1966297564364104522 -0.26301249008972166221 0.27112143486138368109 -0.09441469739261798555 -0.065011863029013655657 0.24337780231747618842 -0.09757444122342645576 -0.18517448254862753365 -0.23285246918481897205 0.048858215365447800471 -0.079822058218760510995 -0.20253609930935984051 0.054570116206043690898 0.047082762569273066411 0.014105571111914049984 0.062517747969682846421 0.17190976146159991922 0.12855305411390055559 -0.12052440847448914196 0.074571239237907135933 0.18718643082704139458 0.0091080385729899442787 0.17587818655283163349 -0.069903659719033756081 -0.098655735500117594516 -0.26149216512394052314 0.075310707887002004135 -0.044516924653475224705 0.099595091398171492481 0.0085534193967938213637 -0.078378693376004948679 0.096423885542742324151 0.15433442877945321992 -0.12920365290832364069 -0.16379996087150963668 0.20892907343519356855 -0.14025535504552349986 0.26632504537811751977 -0.040819715948137942629 -0.095251937954066251413 -0.089667285098053856052 0.042803078861689693169 -0.064853760292397394371 0.12983793976143867543 0.096302139575925524428 0.085428454041860904522 -0.0373872216408553254 0.16402394346294832395 -0.18624372472756486885 0.13061420933186021487 -0.13752553171998596615 -0.1270548632109115561 -0.0032069323815070256353 0.071700875091888272017 0.074761788133861473149 -0.091857830756110342429 0.10723127311526781114 0.09615029076271905395 0.14801853386902419363 -0.17983303051242280346 0.22612483127730084731 -0.21230478619388612471 -0.25166744394083323533 -0.24257661974186350839 -0.26809275640019664122 -0.037753992781055081829 0.10081839310367181339 0.26994994635120028725 0.10812079816392547449 -0.26131269304989956925 -0.045993940806929492493 0.22788402724917339315 0.14811856541103840534 0.035311791662436205208 0.13948010030302990248 -0.084100004672051809074 -0.13108555792852802369 -0.20388175537126754233 0.14999833761598879711 0.19754174007419236792 -0.072662976599635373254 -0.093855363554974161056 0.26233057616163196757 0.23508706682759714091 0.20909879837782843759 0.14672304520073536915 0.078890779042232753171 0.12647801606358671789 -0.14703285162594340041 -0.25687911339024865898;-0.072689678124907175505 -0.11593319995204265371 -0.071962253557115135605 -0.083532092579001016031 0.022974599945728504252 -0.2524196730926034915 -0.2800775578944780797 0.091372499780442970052 0.26231187953935491963 0.040666609873298717459 0.0348024568968707676 0.090697536629347708104 -0.16033518556800765986 0.12588884588286938793 0.058653432510314067183 -0.075009850647278580871 0.27314196871978169145 0.1353748144523994057 0.096797272804665240864 0.21782303908038166962 0.19029423713516602223 0.10112969012297602645 0.24506368797359551204 0.25741279957527435363 0.12936042111852499858 -0.12053975852987912354 0.0065277044683220795257 0.18746281778507076221 0.2550502175018933837 0.021940097444125845894 -0.28573123649491566356 0.0010793536380549447265 0.20091821874669263392 0.10040061379056314239 0.20988346447296410413 0.12916408087820502315 0.050485553708311495247 -0.0067889049478415380151 -0.14853428278662994533 0.094017231350323873795 -0.035615048287130329774 0.083059951935279902058 0.050038647078016904035 0.10677101933618554641 0.097632759451575124032 -0.15773857187631046273 -0.10464091489789759115 -0.086494274387819550243 -0.075531009151930145196 -0.043287698104706444358 0.075976848912844688333 0.076454334557520708948 0.12144673827792169807 -0.068259435694107223336 0.071389915032147421847 -0.22022150353961358893 -0.0065899705482274119339 0.014809372960703129363 -0.0065972655970255745378 -0.16721076091162426214 -0.0013510913551394267747 -0.10907250291459129332 0.19846035344799492495 0.1494743966029129234 -0.18651880148497307355 -0.022860374026632837574 0.12986713769760632742 -0.093473917224835320616 -0.071701768082291617024 0.22278797746316114647 -0.25977893516085542869 -0.13499557018509927842 -0.24992810825768174698 -0.27630129857327651033 0.13503929383299759226 -0.26384571790082206322 -0.27140708424378245933 -0.24699589902919841244 0.039886134208727781758 -0.28487973113265557812 0.24179185083851492677 -0.072884868099453201107 -0.17368721712927906453 -0.036975022888598864379 -0.15754740131913136381 -0.17883624500585762473 -0.10905922252591825072 -0.094856937969518828613 -0.0053408061221865282819 0.27368916373793011898 0.11971464428298762839;-0.24784292678928787623 -0.083975658990470047893 0.23083158251553170803 0.048374585332733407994 0.1196517509597029294 0.21413113920071810692 0.027724221950732621383 -0.27397165039693749389 -0.0042927829202500855307 -0.18956238528850483105 0.037596680864493525753 -0.17662156790988656208 0.0033917129879177353169 -0.084632186720798280311 0.1972597329455151316 -0.1516774166931059431 -0.11683708425339485448 -0.14869787117118662967 0.016412507998649735613 0.049683212580991828466 0.11638439257681335026 0.23981197029177722668 0.083544391304671145049 -0.0073587158670930857482 -0.27473178420627603069 0.11047187289713929215 0.1292784216094047256 -0.10593711819545967301 -0.17659638729560067638 -0.03812336474158677796 0.17100408347311116253 0.25237454244520546309 -0.017736958272334703984 0.0053473881173533672692 0.27081079371261623789 -0.076040157873340813444 0.030648861022931055825 -0.036812996815447029952 -0.17498880842248670797 -0.18968844836515422192 0.27386146022887125628 0.1374822972607877003 -0.17810251918925346093 -0.1004813172170802571 -0.077282671920392731479 0.26869382517807222088 -0.13423486594864914023 0.086511355606562881371 -0.20881750040673047186 -0.11512314769749934507 0.2637365459986139582 -0.17135293845425400572 -0.053724340849776903994 -0.20949440635267524424 0.2664610898515529791 -0.01895681662641101814 -0.050724602414272797202 -0.11591057596962309195 0.12209993674026768662 0.15060374184859012803 0.2146516952618566787 0.041335701648750118598 0.050523099742864799322 0.2098169186734595848 -0.21674959113242267539 0.09414842887142541028 -0.10401109218827141178 0.20982134346184039275 0.22200073391126642908 0.16294073867553846013 0.00083601955009841616602 -0.0075611526392689604875 0.043669178902113185703 -0.13585354538281291248 -0.17809792267693219658 -0.090851625399994764831 0.15169572777128983998 -0.024922485146573643278 0.12304151425390601193 -0.22583029305205939985 -0.27278557914964146613 -0.19847408810039773863 0.25164127713814327114 0.014784525585301622891 0.049241141513080489978 -0.042740778695463506331 0.14793629159627760816 -0.13900254144427059977 0.14661396636350274014 0.11134689182553596243 -0.098309081569108683341;0.19064356087856165756 -0.0046125335946144594909 -0.090983469815724138385 0.056132973544269937349 -0.012842537611057422767 -0.025317077066007859232 -0.0064706875317179475895 0.0005557876023602448777 -0.18002038162917607944 -0.15948130589857528738 0.1889967864967435629 -0.085519063722843610686 -0.10208656103270061233 0.16512935436027020852 0.083445220881227161192 -0.18519658543271216855 0.14302587488777329661 0.24040195689223950448 0.072513804892335151364 0.046204262366886371394 -0.19795277401505359527 0.25312447500898249686 -0.11184552993606401705 0.089664262690853688276 0.24068456584577505031 -0.21175569464437149492 -0.055941446656614844668 0.1559895443797703618 0.20404426928408736508 0.11398992960591949886 0.21576623713624160095 0.21426690155682615035 -0.045346208466823745287 0.064587244668167370643 -0.016172078527951015692 0.018978854872627914235 0.26223551319580129526 0.21751347877300941658 -0.091305057547441670351 -0.20719381916265813826 -0.025268197552377115456 0.24344631275862457787 -0.14763218579344777881 -0.22234379766375447773 0.08857833014025222329 0.090355364628295686824 -0.12203740307933125253 0.091679587541737966871 -0.2291173166206300349 -0.067471054882018391408 -0.14792891090705478918 0.25528574424495886763 -0.24959047067282019716 -0.15382335903174526592 0.2020510826311960606 -0.15960323298676717951 0.066182255460528846558 0.13963695986392316017 -0.23434053606558069571 0.073484117334847054437 0.046788421755715993433 -0.0061691531732635598861 -0.14181376844755400057 -0.17165094896270102764 -0.12567086172620506312 0.18279012689208143372 0.013445391732223874529 -0.032525992734993673661 -0.26146331714029208415 -0.17179750755630043835 -0.24227476505551573394 -0.076307543210498582353 -0.053288019346453725789 0.19256243100477313246 0.19042810124230957758 -0.2234553952714359859 0.0026057029266113923213 0.22137475711445830928 -0.027420803832511178588 0.056941897422182780053 -0.15185693606114064602 0.0096848549532849055599 0.21011259068624721369 0.075437649521553337695 -0.18585385019033523468 -0.11791738855540520592 0.1882544597330671754 -0.058303366151402920281 -0.24414642492275132057 -0.23754970539620795522 -0.070196788607210250377;0.13661665473864259557 0.15871913017384800537 -0.14885649582326793139 0.21263096086381702565 -0.25996627826380469539 -0.17022793061675517423 0.058173471372911428334 0.013529287290042027805 0.15228875854441198401 -0.1083230593946542808 0.15230853968479193816 -0.21711386743558999668 -0.046000195444596839178 -0.11954658855509500692 0.219742532998706247 -0.25385894589372481889 0.16567812327703013153 -0.19637357923190651432 0.065632204821449352528 -0.16221329785693108794 0.21569962960920607831 0.24871560318407159862 0.11478024242738046889 -0.11940592429257396168 0.24018948212071841719 -0.16650142481278154549 0.027684366294842770173 -0.23398825562851008342 0.13764935285748763905 0.076263707267074501428 0.11722705150488323123 0.09930405378001841421 -0.015832155081363250004 0.17917619343422502842 -0.1789455386639384471 -0.17100494132424531868 0.14350306220291850212 0.21306523843891372882 0.15447222300078802815 -0.064706754889049783452 -0.18805975146591608071 -0.030068235906357872883 0.054632551416230870633 -0.15905290507805069922 -0.060257233257814762917 -0.022858758080256575546 -0.22168321466294127475 -0.060976151623240819333 -0.077348815272913068464 0.23515154383510430969 -0.24541433336097578932 0.013987465074798147852 -0.16087975246205163393 0.11387232305530732568 -0.19211840396442061984 0.21083694752089066071 -0.15658229997817779688 -0.00096362243510624034145 -0.035220788752788140252 0.13042519413457084876 -0.15576762962974427529 -0.20311631073809993664 -0.20666242696572506565 -0.014011455094908099525 -0.041641389598137817929 -0.12730688351072455555 -0.20206265284741742327 0.20751923883680895022 -0.10460474746178374805 0.030358842046484611765 -0.23122950322596885764 -0.14816364834951545326 -0.22537490410087029913 -0.040258139753582472542 -0.20926610765389530577 0.021039184289275821016 0.17831752884520765678 0.13898549090886275215 0.20646209196807302488 0.047327934784586377093 -0.0099219165636537584585 -0.067979391200378061488 -0.25771170451725833317 0.10301478486491821851 -0.11341066489827152097 0.18898789308611463333 0.01156689497849727917 0.13257495136380778589 -0.07636437550227498372 0.2354607892295711713 0.099340127264361227644;0.12344575529074594544 -0.19107371885548399271 -0.19787002983480347917 0.23209122312069888072 0.06289817794968774467 0.088419645662321327828 0.050626496187946276595 0.073343174594354632045 0.023287104686962566136 -0.025168138630324465854 -0.13543513202098370063 0.16181948604446444451 -0.17837499370049364478 -0.21698759245349497071 0.15186954063918159386 -0.02178056832882876992 0.081869052307006057179 0.18202256866282834347 -0.027509535723508293098 0.14139744670786563718 -0.048225745576808067006 0.015847830200716995358 -0.23856550627146158594 -0.043325790113621205635 0.13755807459350249955 0.078346676065063056149 -0.045460661210652057729 -0.085202843040895079318 -0.081880541242888252307 -0.023878650958625340095 0.18616939230994278276 -0.17380057167241924621 -0.2117296485829985031 0.28734039642555347926 0.066632078708538378109 0.24936722983634218576 0.052918068402310655673 -0.10007277275314815923 0.19807565574939864361 -0.24747082691495925211 -0.01861755446047370921 -0.11045078545754431765 0.04752596843801405041 -0.14063665992948695682 -0.22277347818584891659 -0.12863947491625982167 -0.27383639701694634239 -0.14074679904192433089 -0.2109565099207319494 -0.025980371294512909219 -0.19870181174629500398 -0.23944455000768594122 0.18952460365657880503 -0.063073828890183536444 0.2269985572084126102 -0.13612795695496041071 -0.17597986249135272319 0.24692685350234699904 -0.17072164127482117313 0.10771053784577037937 0.10005759507220185478 -0.12931936636460056311 0.25871768137104100838 -0.26733778667929525286 0.014021784900665971302 -0.27884267309926158429 0.069149827709321834424 -0.17964149401705675757 -0.11339687146653899819 -0.15872067057153221858 0.25713268089168689334 -0.0097717774522838082157 -0.11614853606853663137 0.0016666994926925555922 -0.27157338872353203874 0.28497423458858717193 0.15004780430432257399 0.17062300750452130682 -0.23312320654022078426 0.0771168674284853084 0.028729247162426894274 -0.0079572266195733088595 0.22271646911670686664 0.082731444471753859404 0.044720637103489113695 -0.076388912150763474407 -0.033528661718301364103 -0.090110516530513898315 -0.013800641483453363056 0.020384382243313719368 0.01299617173311609121;0.025958414964843887912 -0.1643952063485609183 0.055837560976582954753 0.22021411896390633012 -0.1295093002425117823 -0.093467059913033140317 -0.010750988935355193857 -0.20713214161522228163 -0.027755620344189640275 -0.0029179564009400140237 0.23497551588681755974 -0.012851468510524486841 0.20393797366340743471 0.051832018835816839886 -0.24541863474568653691 0.16183872497962500936 0.19711651997366611 0.10622586226498907658 -0.04996835012348974786 0.058057545481216735195 -0.24107203610520752668 0.16555772588152581348 0.18342498183413660784 0.027326370899872266113 -0.14868589980552610053 -0.2384119858909173606 -0.14577319679825068155 -0.16078510521417718748 -0.20186580561739098094 0.18839633730488034025 -0.12366954186455611508 -0.082687612868725973714 0.20179685041877221119 -0.031603238909037149884 -0.22199343394353368564 0.23888007522283613571 0.21668369420322491914 -0.046083004913138041203 0.13013314920841434486 0.19509894078112660631 -0.086469056305334079937 0.23698459908425487108 0.086622142513427285992 0.21622900943171505239 0.18871881547161667436 0.14556527480659386953 0.19928419944460745716 0.12207040056957153829 0.15130135067349878564 0.18843760657138905468 0.12921530957296717412 0.24100479904611141202 0.11251277370471106376 -0.11166987197016881028 -0.17249210189479735611 0.14799716001917509467 0.082920491176687385892 0.13435783891109803756 -0.16733627323350439009 0.16982382547585045396 -0.19980936467614962559 -0.022810116691598093103 -0.058114619430901869046 0.085016275264437460302 0.0671662936747916689 -0.10005445524479947284 0.21672598167064985319 0.21822596074658343057 0.23421042278464798692 0.14443209959131017572 -0.083701178666851061561 0.16988237874550893292 0.16960939876840638862 0.058185960531432601162 0.20934995861201494138 -0.013545798064904987154 -0.053903335337960690821 -0.14791377060828750367 0.0011395336492466504475 0.18884390205677417662 0.19227266907770859672 0.037730270702709380048 0.14120747314062628841 -0.22897736737007434726 -0.19223035529518758824 -0.086125531830131218936 -0.022337783278076263349 0.15757349748138410606 0.01468873592527954533 0.083993167224933343307 -0.24313505274300512005;-0.026448277807267155104 0.00099502782816518822728 -0.1737801382563671504 -0.2394380388803184212 0.20806562349481580454 -0.16750302931375252169 -0.24290364423780838599 0.22240630322305590671 -0.14747915653865331653 0.054745238039461623092 0.15168769405038007303 0.12562369790447716622 0.18694452801319205726 0.0025745621708626641524 -0.057310887275105991401 0.1826705477512361453 0.075693195799979767768 -0.064943905703890733583 -0.19518796017538944665 -0.0052716529237519472659 -0.2415445963272212504 0.047214235925138105243 -0.1761507769086714803 -0.092869237763173267952 -0.053642210225799388801 0.16498240880618306181 0.11558997898232477308 0.037816643433400264074 -0.17350755792793867704 0.17596347687286692518 0.10912851923179242575 -0.11009698951405152978 0.16676690832617835358 -0.0052124815944517262703 0.1988064768110523739 -0.085279263464120652616 0.12865186017647145533 0.14138322209746423397 0.1220198003365276368 -0.13067389946360530306 0.21795853003753107302 0.091910234065333079601 0.19560228824249120683 -0.18637291219679183452 -0.15836020261022543121 0.053961670884871637544 0.19768960886738559668 -0.19956167793702767055 0.071610848279950040096 -0.10760232246137621526 -0.082947875905783743922 -0.13526706223756723713 -0.13044412293306392736 -0.24556237328447111379 -0.15013863139699698546 -0.12180162524528122259 -0.12404103958207332581 0.19293293358961577377 -0.0069662835330267409983 -0.23404374619585421868 -0.12111685384578524394 -0.24308085604132673163 -0.23575668635277122198 0.23364025370087865285 0.030928701528499302764 0.092622608132891234844 -0.070488298934003768004 0.031312512815096948948 0.23241457689979566625 -0.1968128544824031545 -0.19838224102705520613 0.14959500098427672143 0.1182112104442771261 0.11532127896383126409 0.18306885194007535556 -0.24050291182614391694 -0.088142922720833627448 -0.1407110174562948568 -0.10650780057334668927 -0.20391442590875291652 -0.12079688761239035233 0.24614891499141902664 0.19458024767559412016 -0.19616813771946134404 -0.025481029188562473453 0.22468393370146036436 -0.14859932668216774276 -0.072543093738673944393 0.18790905499615523366 -0.10573076910785519922 0.044056111346940658724;0.26491569539363646335 -0.085191782317193182061 0.27605926302885192003 -0.26572062305407240235 0.16076731128798646409 0.065233107355558400675 0.055936704320595630191 -0.045896162410135193932 0.046479462316659968246 -0.16555442019295699141 -0.043784456708846869466 -0.03344315493014117513 0.031868900403854184822 0.10102723768451793429 0.1919990604680779922 0.16111051785438429418 0.086287879894539329384 -0.27697521945244951702 0.11981813635717521171 -0.087436413764206660781 0.099568721132059168077 -0.11793022649241702293 0.16293980482320927217 -0.028469005332660789892 0.11100673308326243494 0.11182046003730081174 -0.19105671009487487644 0.17451723698148655095 -0.16184992587145019538 -0.13655023183979125845 0.19993248422795192876 -0.072996985987849205557 -0.20182066490374711565 -0.14419703412985065971 0.063165793504048134421 0.24243513896629623194 0.15072173688997803076 0.17570907089687071156 0.19734068303834798042 -0.012967929380861196315 -0.087784082798655224678 0.10094808922429843179 0.251845413552305053 0.22235417869945534042 -0.0089782226642822152846 0.22146524143625587189 0.16562646922915799652 -0.10278721742163580977 0.020353673630578977133 0.10917060226719589588 -0.032096025718955513428 -0.12825171932112094941 0.13775970110594384921 -0.23906698078850566191 0.23070171462352209724 0.19678060355865706343 -0.054799316560720373603 0.030980180483561377963 -0.11663699350715932279 0.048076902483368814945 -0.2397019586622483045 -0.19792843829634343411 -0.22564779013349497983 0.1287139524767483556 -0.22107521200753862956 -0.23600746729469893048 -0.076811646096951707863 0.22854622305288938011 0.17058102178254622161 0.1622226519333553052 0.20396918503488714602 0.060572464859357175171 -0.053416250376056018112 0.087348374800207004287 0.11327025499643508799 -0.025500546815091409969 0.06467225881137610155 -0.22677456467657564065 -0.25327714899778375202 0.056402461769580185258 -0.19386778494965212216 -0.12470844401704338222 0.11574504073492987433 0.18883898685329217337 -0.044023924872713261769 -0.21807791657917666162 0.0080857821324062210955 0.075920103418835538367 0.1802574358991749226 0.1260559243301400123 -0.19245519202570754436;-0.078334051833654175234 -0.027106490901207567351 -0.13912603966851003201 0.05219857118953268732 0.19188684910359460334 0.27136808039181481433 -0.14012479877989247878 -0.23105138548262482701 -0.2295354935967549026 -0.18844027514538461143 -0.10098480264759709946 0.15586025804548814255 0.1973985111797383063 0.26883390966766995689 -0.18923490966696762672 -0.042471761259570944835 -0.026705138655692746419 0.076145957298784261447 0.24831569126373145839 0.13916722639311374099 -0.11258956270623710072 -0.12249815137400303644 0.21684596976785011635 -0.27921692514219076386 0.15438916834121388377 0.0018643283853475192506 0.15688036551717271516 0.027924456924447064315 -0.0070613979985411946816 0.25500433416458462288 0.21211663056445695386 -0.042188665981067310917 -0.11415535644464433473 0.15936445145854022387 0.081856545903048458235 0.12935688902073835815 0.19608703211344380435 0.10149727299756375332 0.11735989412240464824 0.17697855977408091799 -0.13363849600239333104 -0.039216178528305015161 -0.0063707926123133425123 -0.18187513399824828397 -0.10864184067296003833 0.13264545505910202428 -0.2765942377196121682 0.020688967236424039148 0.075970228881799911624 0.16688872410071847741 0.27360609255599077638 -0.018518630493106702506 0.13424221880407011254 0.15049551382254935938 -0.018609296252394932208 0.15345791663234550906 -0.14453712484301003971 0.20552206073146320198 0.21904445093931990129 -0.097903438332618761275 -0.038016435674571982806 0.072725433085469942673 -0.081503971929010626818 -0.12912259697304409589 -0.043650170512990145444 -0.03718589525227312953 0.031597287409370192202 -0.15358700847553136137 -0.0056792293483771986648 0.21531212192442705788 0.27240513525910364789 -0.20889836735548475422 0.20974461321284135207 0.251701155156824119 0.073886693040990214509 0.19432317954661448844 0.16980548771012821119 -0.059747012159047867275 0.1588831557549910678 0.092029204561497490733 0.054236150975071423241 -0.22833211349631046816 0.21209158896338414779 -0.030048703768357162142 0.080704514572260493965 0.25212735165580191232 -0.057806643812531574578 -0.038674950970670446404 0.1383715499967858864 -0.030926730929755702482 -0.14880546441254793866;-0.13502139172845270543 -0.17193133803082391586 0.17412380610477801168 -0.20387921255328600445 -0.19179314887672699319 -0.23274081943582092258 0.009482415599123035152 -0.011190502891691111315 0.23646282451046118922 0.057524777778631727698 0.21635532903639889679 -0.24611247101278671545 0.17509243527706486176 -0.24070068682900011559 -0.076661478694821344471 -0.15547805565873717981 0.17958377510992157289 -0.12905095002176927843 0.23181498994228386112 -0.068842877693826090568 -0.10389988354721027553 0.1214102776240338355 -0.039424737706501587764 -0.23575672284615722951 -0.13288412286888232061 0.14241800740732749042 0.26129278351641632705 -0.08103214300646660595 0.25466244680684430035 -0.13470446685451864521 0.25734348561385100851 -4.3234847044280473572e-05 0.21561001978425278769 0.094878323972189287927 -0.067043827709509257184 -0.14090368051735172039 -0.033359951716996613658 -0.16732077246132431858 0.22622761493233922714 -0.23443335081074920256 0.066757761291563202932 -0.22069523680142544286 -0.10683460300212062333 -0.00131264261776127154 0.12782296375027324409 0.064213342132301676202 0.19866955143252923444 0.013740919611199900463 -0.060225075399740049531 0.22533626985922858288 0.007744891905106528196 -0.21130542637294627561 0.25582061698650765402 0.034026231050311502024 0.076623971960833550665 0.076134661336172415602 0.20403405616073277962 -0.20677746620518788756 -0.041346457415225197629 -0.17756284642991537748 -0.067432526999664357814 0.073588725663728274395 -0.027813364009621206752 -0.12070800158573291583 -0.066325781135443337422 0.020779817260689479458 -0.24025900617452056185 0.0035048194623053230932 -0.08093988357857331839 0.10120448644788172798 -0.010005766467369683892 0.26285525037006535198 0.19821108469626111392 -0.13933323925945206856 -0.15898213290556667543 -0.15237435452034417405 -0.029815424524697650005 0.024514263914000800071 0.036796210097548902318 0.081511534871254426315 0.20854077481307206621 -0.24887240338944971452 0.079416148779463624496 -0.12759962850338588125 0.11808005498474398454 0.089166933407726509109 0.2287724373836828029 0.17420821815157760959 0.03084166607040966096 0.24350441479239998133 -0.059557149223499555868;0.0097597597498524594345 0.038248318934469026364 0.12245880842059442273 -0.11293751266621440688 -0.045241200848258000811 0.043035875876339009516 0.17848391090924203839 0.077097064333338752307 0.16335994209605461669 0.22563147383788842437 0.22245006882162535189 0.24779600593747799775 0.21298182459412456913 -0.054733752701295719512 0.13488070388261558241 0.087759496417217044972 0.15782333908890636143 -0.1644208045211519309 0.096148212237265190394 -0.11704015349082837194 -0.22827358170528541659 -0.21318401931473449085 -0.21954970898125911183 0.21307264492060465355 0.1599895319860138998 -0.031458104775317123625 0.090262586585710097298 -0.073355494416648583944 0.11063159537608639738 -0.036077158175436253862 -0.029155638161309112982 0.11733825821084113705 -0.070888023533537708465 -0.09901038316150315155 0.23807987538080016554 0.1575850050287104509 -0.15497750536692569967 -0.063568279354683662752 0.092674280455075891405 -0.25764130757927078408 -0.22940150870966785623 0.025330983309800849529 -0.24152553901003576131 0.095600929812064083801 0.12595456519483202995 -0.11800835148950214459 -0.07847347683524917572 -0.094301271130932950992 -0.19073441578021382847 -0.24852075675967011392 -0.18146822958457151098 -0.25413953288092916427 0.071334931708228771496 -0.16200055310457495139 0.037517163666066701 0.14771128196471633442 0.13686315223310199785 -0.24483368247280751229 -0.17004540167004963958 -0.24140560405667396693 0.11318093291326564165 0.092637170535159643614 0.068068388618908681753 -0.12482020294082479817 -0.2222503055417130724 0.1539271222287889318 0.21943478854194398142 -0.15593540134813160813 0.15502012766635403507 0.19353381224615415213 -0.14361398506473546655 -0.081676088468721402824 -0.00085310430925625009395 -0.18979774531412008098 0.14090173823811361076 -0.0454913352477235855 0.20637242777598788224 -0.0078947539054325926305 0.16865957458356778398 0.1618915302076938123 0.0065961331555530874557 0.16722281336912581118 -0.12583900180999460505 0.16281795220083647435 0.11661782627681181734 -0.094035017243369933837 0.24859151776866084127 0.20611496141824636741 -0.16107402647849405897 0.068569577916822263552 0.2520683977085597105;0.26195282406279241094 -0.17875494503237041033 0.17113024651866290404 -0.1686494577960893082 0.18128954140352615543 0.01942938914201646633 -0.069014747780866553262 -0.084357336248693806646 -0.23922939317757949129 -0.27142377812693396777 0.039561386823118986633 0.23470848779089190095 -0.11814174410319934483 -0.16292362348099695413 -0.12091717707641526369 0.061732358892584798804 -0.057235076224348688245 -0.21035576055726432076 -0.035619860532708678968 0.006845957325570990043 0.11958960884831254523 -0.23085885466338268435 0.17781421910977887602 -0.086452297461262220257 0.18151257242170482087 -0.10631292883643950198 0.24325779354567617085 0.10809180344667450313 -0.16545793442087772251 -0.051932618813728188834 0.21007209163839390964 -0.16719387976333038859 -0.20741268859570849425 -0.091209146765054413541 0.036197219525661059047 0.084670817582336285745 0.095198563240870032187 0.26592948847441705285 0.12475463578693010702 -0.14089271787966287097 0.10442836260394515457 -0.21860703682680152071 -0.22781759211011731736 -0.033602892700349266952 0.14929631095602477475 -0.13941175615985015868 -0.11153635756324574435 0.031732400349943325202 0.048525672127180702331 -0.21630410335425293011 -0.15496276873897174564 -0.050383637844238132741 0.023374249027726681782 -0.27109115267342631661 -0.21997027515530748198 -0.068915764398357309828 -0.070973690036614217602 -0.040371436650890914211 0.058149640422801768258 0.25307838186492426225 -0.13313271232873477579 0.23579136734831085409 -0.067264861002092377062 0.22555347294134539538 -0.21079829100629532412 0.26058680490190766488 -0.044715304346014589365 -0.15978246483350574958 -0.13214444029958188898 0.26546798539561577979 0.26049928480629280791 0.033196223372597269408 -0.054006383089013600129 0.21846361557673635301 -0.035713728620660495361 0.14936699226608352031 -0.19652902834406685284 -0.019284667362910668659 -0.17749246912480873273 0.090964630101008969731 0.040542851852103246879 0.1496152283073200473 0.099232943965261680153 0.0044348845548022423901 -0.1556512843355001563 0.049495446763795795941 -0.11029604334640122354 -0.20839803795913150464 0.12582859173713689671 -0.051857018564182448539 -0.10039686589211382906;0.044853673661640218462 0.28560698103086490374 -0.0089752143093386940048 -0.07110745172695707994 0.070990698962094894719 0.13913335470980511821 -0.1804512178102697928 0.15487812231761322046 -0.21440341148851230213 -0.28444853947504616931 0.053140280927243745135 -0.12768985186748321725 0.032818955946412292635 -0.14033898132027158856 -0.24782443522339095421 -0.096952763792716847857 -0.010718220682779442884 0.18846427371969354247 0.1129672271412103246 0.14659025219137522544 0.0034033411780345183828 -0.14936704158474625737 -0.17093084312807185765 -0.25240748127767725917 -0.11980694262074879919 0.0086494594007144893349 -0.059068253566869302618 -0.24348436035484796736 0.13630957769824425529 -0.015171686600585624835 -0.1881489913353311394 -0.1273925902394880405 -0.10970191088294221904 0.28668942539476910403 -0.18418136229761541967 -0.019487025632478633536 -0.26319368891070582528 0.025756075716107797863 -0.09698829987884327597 -0.020779679096677029781 0.1676752224324936924 -0.089039496820736876992 0.18258049278751409261 0.15014798400702553116 -0.25520918829603211897 -0.087222319556792021755 0.097325311081113460854 -0.19238130388969640339 -0.075627604603693235341 0.083692370141008692874 0.063521301904254603987 -0.1443221165105670889 -0.23472700159708984047 0.078187754462513178733 0.15548576325666846332 0.041555580210154353937 -0.20600162371983846143 -0.1672633186516701842 -0.12008957899460913354 0.25115648151955283218 -0.075241253799604487784 0.0051233520523420242321 -0.13650566488762999606 0.11176810247334749426 0.065832476523963970316 -0.25651595597433918261 -0.13534999244767706439 0.003856575505422506038 0.2162362082347590031 0.19650490031154799198 -0.11546689606468454881 0.24201351967358711303 -0.19809160360737693152 0.043672960982534939078 0.19013552128780272787 0.21838275970194276354 0.096071547317382183229 0.083619120585992898209 0.049418004384880004354 -0.090806469079308407832 -0.023837698626447821615 -0.15649814337006301423 0.19948591102742946335 4.0042329739898804321e-05 0.032359839808976685605 -0.22518582403495210342 -0.24869857833123773516 0.059601154454912458336 0.26360245763150963461 -0.03920574001591472374 0.21916372532725791888;-0.18484309942593460385 0.22662805815291481304 -0.090295164044810749537 -0.15190571377513284457 0.015074368101487671881 0.24360365471354783473 0.037286954190873855541 -0.094227849175335415266 0.16734291607523482659 0.2139926364849178142 0.0033409724233548271019 -0.067079184029263924649 0.25934007216041421451 -0.23734090055639328609 -0.22282768590439783196 -0.065657425856261553143 0.089176085665947243952 0.084022480742815291999 -0.18420424194454934619 0.22684738120785222226 -0.18887635091712628999 -0.17355287859074836065 0.083850347431307079016 0.12980645892781861317 0.19447296042686135209 0.040970778955879930128 0.018154009539117436922 -0.1976073476081866287 0.08649418575411844945 -0.17565582803000601153 0.017151003043739936754 0.12583840677244348405 -0.1362021933357205894 -0.19606462856738440803 -0.25541041123574409477 -0.077716437668638740921 -0.086902592704627024123 -0.1631719220452944874 0.072667901719067812261 0.19434166294691784804 -0.097295524347780742991 0.21453777833015724719 -0.18679744209535864563 0.04025798398039769771 0.079916568102696830533 0.25346203083480411955 -0.11845889978939953824 0.0960107151388082114 -0.12252853903264887547 -0.079816033144585601944 -0.14849465408268266997 0.10087110679926915291 0.051451210697251781312 -0.20424282738848384411 0.012724450069931496354 -0.094540728414186619988 0.19371038031990292505 0.062859653119104366703 0.13024912778614666786 -0.13002747008974102627 -0.18459501562125396612 -0.22319521152975818623 -0.27859827014536076017 -0.15785203119741506028 -0.12326962193290512404 -0.25617975021516070644 -0.084045289228214636879 -0.20153860010821814108 -0.17438913262040597885 -0.010314589856953085625 -0.069479259547457525303 0.14953353898020341206 -0.10113558896107792406 -0.13639664708776089164 -0.13261459827260604905 0.2324837924389582533 -0.058844860192845863112 -0.23479123816016189696 0.049087918280612020949 -0.10682141593790078771 -0.2313781727561963486 0.049775010554853379996 -0.26846667345878610922 -0.009022819925960967255 -0.017337342696072618325 -0.25913719133285673113 -0.20632755199307462046 0.23890705657837943421 0.01783822451799585429 -0.033621544961963276132 0.13378386648570292361;-0.24102063753767707932 -0.12840328698115041628 -0.0027628010768744925077 -0.17221919523992532119 -0.22700068663437539263 0.23198989819580759231 -0.022322563031505041758 -0.036407705634133716299 0.24828697770404548062 0.018218652184922374399 0.11964205633318075739 -0.15632226543691074561 -0.092760444082116061404 0.079337704312045148614 -0.095444400984194779913 0.02728088965664864432 -0.12473135315695869918 0.030788621971237998404 0.21127948009734756618 0.067046469196309646521 0.09766144331777447396 0.052485505306464973196 -0.11588981977717333072 -0.21902868507234332651 0.026082634659421548989 -0.0064019595415329769161 -0.12491756154221066166 0.20912909037898769204 -0.043475506804648310355 0.20410815861371764401 -0.21620431068330026037 -0.023563654462131957551 -0.13821068224914362377 0.13426338185560174332 0.20645480313680353301 -0.10338990761598705614 0.15139360075229738034 0.034331167358001596357 -0.028826014065047981388 -0.065940807019363001373 -0.11201178742289343016 -0.11652805693302618895 -0.14812443366045341397 -0.072891243885809239855 0.24246349852160267724 0.01389575516071499782 -0.23580070790377852252 0.23685325041109372979 0.00058736983616855379699 -0.22322132595543034417 0.14288144077319869796 0.15376348722523172641 -0.16217951096982852199 -0.17727132148798183109 0.018652289248817854189 0.25141869289046936409 -0.1884020009184645128 0.067910606244477006443 0.00094921231110902250065 0.24374464558501210409 0.15716606413094100225 -0.057778189266570502414 -0.15005603423369501259 0.1195372911689632639 -0.16486320654598046742 0.20800606235532526078 0.15505776008403659993 -0.2010367952832211591 0.23523136237191866194 -0.064859437955750831595 0.25829750241503335317 0.074592450356265313505 0.18392472963886546955 -0.01223766285678061852 0.040102348565405447622 0.23194269033565848015 -0.24561865332556720443 -0.010904670231502409244 0.12316753617250730812 0.20325132268420156856 0.24631393651986296933 0.025857046059515973596 -0.2514975931096093964 -0.18653158480271495034 -0.14434501701669091855 0.2326078387226846178 -0.19068050023833116313 0.1510515894874676357 -0.1048828833550106282 0.19756573170805044604 0.025855691854629769821;0.24646545876433381683 0.094516625237349868871 0.2274045815287625838 -0.17393098732685000063 -0.088192175862775501471 -0.053546072033757288744 -0.12660503210563359144 -0.099166697878868712013 0.11285043298048547111 -0.030551569832889452494 -0.11823238341591010836 0.25232553831221093965 -0.19229794402244670959 0.17745990056279514757 0.056297347157131368001 -0.080976069003162759463 -0.057632828687452945793 -0.14277888284045497924 0.17359791594806367465 0.049640415485153278896 -0.10668506536250578487 0.055555773533189981017 0.00018345708092114016569 0.003532214315612969887 0.14273551847155310779 0.23279156876086287697 -0.23426432647053532787 0.033413047692883932061 -0.039461334690488097943 -0.2561970965064400696 0.086647507435960835487 -0.14328661042195733888 0.12551574909189230911 -0.21219121366579479782 -0.024679649406744372242 -0.14560821859752839935 -0.26248551821271304263 0.17352819494624291408 0.22276876719887403477 -0.23511449709483370207 -0.026773414739199072332 0.03727447695728693805 -0.18400616568109340321 -0.18422962341391410646 -0.10437749413835550882 0.1765479228489808261 0.096493653036454574146 0.14363727194332184811 -0.19691950898449170348 0.098256658608509475639 -0.25818439701308393275 0.024994432287981687563 -0.059910764060655818941 -0.036680938531661967661 -0.21999661943757869986 0.14343688499135875958 0.15399318973727113558 -0.26528846938459810234 -0.10617210680866812078 0.24219719145479237654 0.065757477822527776734 -0.23020294846683586609 -0.21454725591545603658 0.22758654564445651713 0.0042291456812872827917 -0.12805895369210340551 -0.074961644167004168327 0.073391893183340092821 -0.042567516198584280651 0.19787022846795288 -0.14904931285786349182 -0.17005521401687348493 0.021926115183725457952 -0.20866708636209566063 -0.26945962872687556633 -0.065587626694997000487 0.11019608745113267101 -0.22703074753709776012 0.20467881319156225328 0.052151970759378697695 0.23944517774114482123 -0.02641095989961400603 -0.0017508177386858741857 0.050672732490402661032 -0.10636943533783613236 0.2430027749018454919 -0.06525865396521057793 -0.18740148948435719767 0.015708365972785895415 0.22775540844315422806 0.061536602912682175637;-0.075165809864004146101 0.12610348254684944358 0.15328438591238002786 -0.14734322360841323185 -0.16631055127870519872 -0.22587820365082528218 -0.14574886713562337781 -0.23815363942672942987 0.024143218640702086147 -0.17905149831674754823 0.25110087542528797266 -0.064396455721564077601 0.049271209298462390058 -0.18251149031100494247 -0.16846391051572598418 0.2113010342568688027 -0.095013034770900520187 -0.11509899368467023384 0.23501111405093777496 0.18896142496017873103 0.11786103749183747536 -0.12186416692352715352 -0.24474537296554671473 0.16457710325765434467 -0.11773042340573472431 0.22611424946750718901 -0.17184634975265372647 -0.1816256212766604039 0.21542884810489362768 -0.19209529494736193866 -0.090984265600056721257 -0.16290721409385292007 -0.1217635867738425387 -0.16557225676734302344 -0.15904809387796361997 -0.16277320491881527853 0.074248214895825989657 0.068884549094761382548 0.22378596336813222356 -0.057067108373843572489 -0.078186578092643510551 0.0075707228517582336041 -0.092964251477716863814 0.16489557850853056586 -0.073993401085871879364 0.11334885320771075079 -0.064577079503726791954 0.023921252436502817018 -0.14870810803032175063 0.18341765875367585514 0.089772158161262313736 0.090736594155166383491 0.13172017596201471279 0.17188384732396222443 0.0080482128408197774194 0.13995288939157196628 0.2709937498857477034 0.19992481227090333484 -0.071823766668136529434 0.22101550324683846838 -0.23991623527252606274 0.24685767016115098271 0.047969507968618742277 -0.095356334445725929316 0.13596348929507576231 -0.096787529572072469874 -0.23410088662651523661 -0.23596757579154817308 -0.23422225933725115965 0.15988365853336064526 0.022844866093149566316 0.026216333840247151021 -0.1351182745110119654 -0.18846106581448157646 -0.21884151798146400658 0.0027132357046727910779 0.14082522422150076102 -0.14480885082606265168 0.26483548809482088116 0.030085098454356133668 -0.25764950399398267589 -0.038411540445761026275 0.032257684246700009389 0.11598815448767822722 -0.16181234404226876866 0.024779401801372332587 -0.14429886500388752757 0.14501106429169874357 0.043572838400930020974 0.12424014161748973828 -0.043083976850545165072;-0.17092068503367313648 -0.26522035875479021971 0.17502989888146858188 0.062599738455347914146 -0.12866490686246381814 0.17905446259210419657 -0.11820389542200308852 -0.10116911861277741447 -0.12882848190459211812 -0.10527154922702841588 -0.10682000659784966767 -0.15688993088422009681 0.22824328741261046272 -0.095875837768019056551 -0.14240834207583097371 0.23611201813724574938 -0.084953936519925554727 0.07703598873312020312 -0.047601768440526881498 -0.12187678331276026455 0.021784934182461100638 0.26081673442309344368 -0.10287425328162377869 -0.22817561258785437617 0.038101649459127195918 -0.03604502227544425369 0.096159514248851260532 -0.15833618040162633633 -0.08672539636326925816 0.22063455194358097544 0.22794120701052916766 -0.14765593123211920301 0.25509184774377208216 0.19764471228052968299 -0.039182330766486299367 -0.065580464670446508846 -0.028473589576223222453 -0.23828826209764550348 -0.083687440167058355089 -0.18169880058253870536 0.22782014764274965968 0.029531545558993062967 0.10668775434742404362 0.22770014763041704353 -0.257102916174862417 0.1960639415657627338 0.22991833111393525368 -0.11024229472618925219 0.0022452067838309628343 -0.096509621460620143019 -0.092292568381326045568 0.10710216734229269231 -0.16494562979303425965 -0.032064409099103040324 -0.21600364678252556572 -0.14723264191570661907 -0.09162833875009115947 0.21748867404001911985 -0.13695950675701210053 0.19190989432247687607 0.26324618480885697558 0.15644586685242162227 -0.1329863472444463568 -0.26427218601922003449 0.10194573671746211263 -0.12337623008901529853 -0.042681842271890257923 -0.16422459382034940156 0.21856228322314782964 0.18875234755171621526 0.05265715665225526726 0.10451756876506383687 -0.18229128486683759958 0.18038133363292480071 0.15983324964503398125 -0.12870960274281303959 0.029788352358075559367 0.22142426514266408399 0.17053833031842544066 0.015267220241253260174 -0.0061333485330739671848 -0.23189911207021163264 -0.16977463501785347577 0.12843466700904515587 0.087253700387095831092 -0.056289560562484644568 0.15152473761910270622 -0.063214936910675562087 -0.02067629070580629877 0.17859262690506944038 -0.13049770347846026408;-0.08322858176743305747 0.058943090207485553111 0.041750583940015059681 0.13604829720963174111 -0.19286277751220065602 0.24143620076434244015 -0.1944539546344735137 0.23472504890410947342 -0.12871713481267776924 0.16915948799850777373 0.085893559526857385378 -0.20530005470594561712 0.12343908787125348892 -0.22980667194215204097 0.0089364598645055842024 0.02809206594343210614 -0.0048648250423221905958 -0.12220349239125453955 -0.15819053497745549919 -0.23439488833783533872 0.19473274528868828037 0.13280121353981982901 -0.18781285317077064945 -0.056992718718052594318 0.10892655467225453858 0.070576114014816282438 0.095031916912305280931 -0.23681286743233578851 0.24269757459382787501 0.018035040818860766099 -0.1357567896326557777 0.081019636761102409306 -0.23515407160313955837 0.071613642328702042938 0.18427281049746979669 -0.16076689255873063966 -0.072870931172343833548 -0.14151668372775053073 0.067537371284762490187 0.21834785103923831651 0.14946760044483217711 -0.069527291365350268881 -0.2053000616511916343 -0.037502204919853419918 -0.10584578385730256112 0.033352893767994128138 0.13573534798098688126 0.12332650425459087962 0.10812029595717749519 -0.18399696008839666606 0.24685640768260697087 -0.19584744723002542321 -0.12448795488163516554 0.23578510824059534245 0.15346542365880985748 -0.044134996515354192603 0.12264776542139452231 0.23885439891503026932 0.066626075954663979695 -0.20683439568648825935 0.0050288853407777049653 -0.14549250313433942372 0.10161001141804024139 -0.20009776442459720203 0.07044552850311890102 0.044582244837358966927 0.13112793999760083419 0.14089777299230413221 0.20581105694330570355 0.18243987126920488406 -0.17382997899791038932 0.051930141023903753084 0.11898133446717028272 0.18571766885649149126 0.23823509572308901316 -0.22773567528435453844 0.099214909398546935471 0.22694256167472356966 -0.21891367794988117468 -0.041854426213066821261 0.06586564364577965347 0.21957522119749517397 -0.059256637925878222206 0.25356920553006095931 -0.16568661553125085817 0.14382348664649163839 -0.026320401771863864704 0.19306456080881995163 0.048550296856054372951 0.18824215280039632847 -0.12314022511859981646;-0.24294370099102277627 0.090095620083854494053 0.068147506827387127615 -0.24074790455064118411 0.077579168619402172347 -0.012524271710458089943 0.1793354796080137703 0.23861421920400313623 0.18785834661942410473 -0.2173132327852652923 0.17214221630553044884 -0.14167284695384499416 -0.015035453125019282092 -0.076686225813287586806 -0.039888858912532410006 0.096408009701532709768 -0.20210220035397136185 -0.022453647548981506277 -0.20370904463145816932 -0.012313276857284932014 0.10798838796521741112 -0.25667714330542446 0.16327406033953076325 0.21547130932270947001 -0.18518628198951114783 0.12349258600729713653 0.25344970413135448073 0.15593730858367008119 0.02011277565396174527 0.22854248633248536171 0.0056358210861168142602 0.12128385936318876459 -0.14705066380030595852 -0.26169050944328337005 -0.23942505057333851592 0.19140392912255194124 -0.1200596085861700274 0.21991347955566908912 -0.061149108639696157785 0.13478606941391879648 -0.20400349847215065724 -0.1930579101031619782 0.26044063932667804728 -0.11324942417750079315 0.25782118381279534036 -0.11696762965014040336 -0.099744697681392588406 -0.096981901809344919774 -0.14740469767109040666 0.066284345771295286043 0.18011270995398326322 -0.085269097185919087711 -0.22132157025824794605 -0.066250178820599192608 -0.18839090719442125321 -0.16346880391535512089 -0.076007639287978323583 -0.0084270539780862425278 0.017782695223918208033 0.045767679485572004827 -0.21893480593524619615 0.22218044582107276952 -0.12658284682774750829 0.22726780369838844864 0.13806271206052242451 -0.25744558656671523433 0.077987969554057290367 0.09019309526403054833 -0.073828062110026820841 -0.14053120659893852951 0.23060395961535773424 -0.21641094680662698035 0.062002212392733242752 0.15127036807345078939 0.24822478586710250426 -0.093226644408756192961 0.0091601699513516789825 -0.049771710965324761355 0.25399653618164513835 -0.07081143994644624462 -0.04890797965230839206 0.14018317286587964055 -0.066922563363977727313 0.091062985991848130474 0.054037065724309808756 0.0079627933494903074818 -0.035541353238570577711 0.013647325501560982064 -0.1773738086482609666 -0.058321849710046204385 -0.065418787928298305356;-0.098212990873740399489 -0.036829431622341035624 0.20543725169032547861 0.003741756920455909137 0.090515195772508438843 -0.18104891019626440096 0.23927459282201918311 0.026850386834337807568 0.25386355737783172781 0.17560831578744462433 -0.060992205864319554154 -0.07510603107959487601 -0.077574203494644194956 -0.24176940605718610922 -0.018851988068002138721 0.2414589869523221799 0.14711683726609589562 -0.10697741686214923273 0.17520643097010840661 -0.24875611945518180668 -0.033805950528638807617 0.25615358444653629766 0.13264438018325810931 -0.14892456269619400167 -0.085142915720939099655 0.0041443444535674217946 0.099230288280622691577 0.032866581485121622308 -0.12409261954699871144 0.048397109956623690641 0.21207618390834076516 0.25350662778687127474 0.079336122573367640065 -0.24764987688757378326 -0.19271977818169847008 0.072981894887765907942 -0.16111466941780447359 0.13174572100296305655 -0.15788584187415666271 0.054964902851693905883 0.075500398011661043474 0.20395208808121162436 -0.16891951504555707819 -0.17311847848793421312 0.0059691798725849216575 -0.10075493156523115945 -0.20783152738133078841 0.064213427194654698615 -0.26043397305786436524 0.0058406001900316818418 -0.16793463886056086976 -0.11283193072864274031 -0.19328727994809613566 0.19697626999991527108 -0.038817851554433166483 -0.23008263804000264607 0.17259633342395408473 -0.24378239525083553185 -0.16034330019548126423 -0.23490666388588357649 -0.14794143551596197761 0.018313514532872634394 0.013606120850056234797 -0.022058855150336297707 0.079464009263028781427 -0.19115135526961779533 -0.085071088102862332803 -0.19045452243160004846 0.10669260267847280321 -0.2517935727773100707 0.026789452596463182721 -0.040607314264951774319 0.021906561167308217369 -0.16757265212949540301 -0.094302758021350421846 -0.0077957703796763394566 0.22174125971299132876 0.18125553968720706233 0.063436028477873676601 0.041728948456974390702 -0.14604475255141033396 0.0040031522834495150004 0.078956390719723629212 -0.018003383874895511479 -0.21176098228550310765 -0.14675235824629109804 0.085090894534886607481 0.20003450426770832959 -0.25259176225473262134 -0.24750699509180665303 0.25737670027638276382;-0.21380125654380749411 -0.057565600748490271255 -0.18804577171230252297 0.22961064701117692155 -0.19011350742084834331 0.16197880687339358263 0.12369410973403183185 0.028612237677768971589 -0.25561465071906303015 -0.22492223956646578698 0.14704597490158252682 -0.22313623267945870143 0.015623992683431188119 0.24661787297076442904 -0.09390022377859690017 -0.05897054819893406824 0.098568974891006438943 -0.042117099455532373831 -0.051835204733443822345 -0.13008737190000810302 0.034743095032801075972 -0.22025343443627665163 -0.18780540377689722287 0.098683336860298065396 0.039752875506547255546 0.15645473621216068882 0.12176614347009771799 0.055271760247081129502 0.2004587221400167818 0.15556891803379316319 -0.15025623166652551932 0.052765524497728956421 -0.24174838203366821876 -0.20762901810316367057 0.10041005898668313445 0.22771589580920803542 0.0066096924032552177575 -0.012369931289984099909 0.0047733495015419118157 0.16565283121786705811 0.061374619249240022767 -0.011526351053287085466 0.13401599752065235238 0.029466009789842730754 0.21079357135993956329 -0.16135657769351938184 -0.1903352630076451113 0.020547505356646834224 0.0074451939730805502884 0.054091097525477471741 0.2053523470652756644 0.18298588808735666289 0.061211972437849551665 0.09455044049404556783 0.25319884018021859839 -0.083926034135628005406 -0.098105299301646117782 -0.095575959482098890585 0.15128113458575048744 0.25029667529305726914 0.1074500252174005327 -0.15445739946719086455 -0.056721996599543265949 -0.10611780745426568906 -0.19373918006460844055 0.15865659663048303774 0.10600026414323704405 0.072388311174913316792 -0.12556137863043848046 -0.24166297825150909184 -0.21932758770608379306 0.1659543910237710751 -0.070269008074520064588 -0.032002366757977025735 -0.005572606990143020439 0.018101061244190169708 -0.21794483098946856869 -0.16538373257596078458 0.21599514096625280213 -0.11438377667690451112 0.20964555737146112202 0.051813954693894818948 -0.18922128484013342464 0.19364649757366605987 -0.13019630048706617997 -0.2274540887400232636 -0.23657527324574939565 -0.24713259655100242029 -0.086936829257239653379 -0.21004721710671242496 -0.25234817707768303352;0.11447559228657626373 -0.14460205475326054492 -0.033874604024533065683 -0.0746905584623734492 -0.15999260720228464239 -0.18536969142240308783 0.14003673049108739113 0.24731096446513617382 -0.087458710692373722861 -0.0010258942120027394335 -0.094395532141707885754 0.18357157306377716588 -0.098817542910448280535 -0.056620753367934546774 -0.26942045992688729017 -0.13122815220197617259 -0.245579625129213025 0.099471425656202344667 -0.10782575137730868176 -0.095264989456297480275 0.19239339517206818786 -0.25706821825933501291 -0.12519265233913789981 0.15319841252013796651 -0.11166422301502630654 0.18449064133456419268 0.086403345854628416101 0.13789147961305697754 -0.15535807577400978507 0.24721111756897018452 0.21466252900096524647 0.2554882384096074377 0.040362689156923592382 0.20115795304507197439 0.20057594367362793775 0.016753448944376480439 -0.14729134760301509921 -0.26679673416177035472 -0.11290881012745186684 -0.031904047953327283049 0.057750582483400085543 0.021420756183267105482 0.067906685845348230268 -0.093742631407703932989 0.026840790675207209376 -0.027144808080136390016 -0.15419556432943667956 0.045090797501184991247 0.26225515608481431151 0.26028032912764165197 0.016420038972650357473 -0.006634165355072019557 0.23831800688305090907 -0.14217234027639713556 0.21271012268193037476 0.26209262426005103253 0.082631521211648129022 -0.016634532101146858735 -0.19398712301493167831 0.19892926216191872402 0.0056115430317048237488 0.11232215543177187511 -0.060588695779135712249 -0.20396587461109069728 -0.026037071647857894241 -0.22048379087376207552 0.088879589157132232735 -0.22515021249752434351 -0.10531825029446534314 -0.14700367765629981931 -0.25760988189939165727 -0.079133364891987856282 0.20388197532336074791 -0.17197838245639690546 -0.023316738691582086784 0.18645204776406834601 0.078088054566394698996 0.031690064884434002157 0.22111216032269989662 0.22198301678254364622 -0.022678382403915793575 -0.045401857199577240476 0.094222629702990695622 0.12566777561670802732 -0.0011812758537301983747 -0.26583304284357694991 0.24209764256494209489 0.1292839260556916392 -0.11938500846356954466 0.069507427304412852664 0.11887400910680527566;-0.10814284241113125695 0.11266237980973968502 -0.026253835984828385181 0.063988499827916586749 -0.0096426107378984899504 -0.15312987702811908797 0.18891056623922780622 -0.16626239753388707965 -0.014373385033511484193 0.037150712635085472724 0.14804077350689204273 0.23213555397772181466 -0.07556462836655650217 -0.0047865596648941346677 -0.070364812005189444899 -0.12531080679050984883 -0.18027541951869108239 0.052603273056693461429 -0.23688199841403184687 -0.14196920483170205607 -0.014214754214701936369 -0.14488440301727054105 -0.23037267455628207546 0.055593335450404207654 -0.13993093502467399136 -0.18747814260905129591 -0.22604375435898879654 -0.097881550959956889479 -0.23414942437683466947 -0.11299209286526307183 0.10624939779753750368 0.19361930705174182354 -0.15294918859586859039 0.21811131554542234623 -0.22720837497896598234 0.16231305721551664289 0.1906330805684159635 -0.080155330197931778935 0.15724613718213656388 0.20589644895103897948 0.016908954599229329696 -0.12404093691089623785 0.16483917848159382324 -0.03777792614652809855 -0.095853058858620901472 0.039426337675606944189 0.18518667282485495873 0.0073271260583542569683 -0.21470324612873567527 0.23028479040676680389 -0.19382203364216457619 -0.035857615044587232145 -0.095106920307401671133 -0.091419745176273881082 0.2464190461539615129 -0.068361619330981920895 0.16100990047402624628 -0.040290936394549829724 -0.16697553999502975919 0.030825841405409760976 0.10336143957302658392 0.16810080827743040244 -0.11794399573110422863 -0.23391009439479751308 0.10598874242040383364 0.20379458486894275193 0.24231080312432548562 -0.17711387710727116707 -0.14829501167499878345 0.12407932346770619847 0.019606018939828329106 -0.25124160702165387882 -0.036584349303487133376 -0.19904198980274209752 0.20774077561652876112 0.14575308868056682798 0.077114654272857047212 -0.036224752419171168949 -0.21387738666728087211 -0.12415380633169538493 0.14614996121184664624 0.19699454859766107884 -0.2285112581441926527 -0.24750593395918904505 -0.21712123517557224694 0.1958968579872109872 -0.22939668775322780148 -0.015822949261479282018 -0.21681820298801676716 -0.059872926685248024914 -0.19884330662967197867;0.093819374669286512147 -0.11384057814084463933 0.13479911928980242708 0.25913456579199750651 -0.16675882576754685882 0.21522026248771883306 -0.036554080691677065529 -0.17721450915178973973 0.21432803042197520749 -0.20964735384648730543 -0.060079892128472388302 -0.022144995525435882955 -0.19042367065534501758 -0.21801249690592433561 0.21643053125106498369 -0.065507166696004578976 0.19184123970603367271 0.082538638287711407759 0.12957066460155672316 -0.08950344941024944434 0.066887083148039538916 0.26571720632810996721 0.20908574287508546741 0.1508724871570437942 0.15150412620738978875 -0.17338448944287820908 0.2069976122524943285 0.014325653962825915175 0.10601115737876901091 0.041633453225749801618 -0.23760153857801361021 0.18266352152494380601 -0.0034720753480356005873 -0.024483443608863789814 -0.17076149937595117012 0.15639483039745119552 -0.22112857988707945722 0.14729414069930196751 0.17896200941632572912 -0.17106989558981108845 -0.015253701684469687244 0.15685530137912248594 -0.07406680805253251787 -0.24470510710004897414 0.029972030217248337575 0.12203955663833064571 -0.19382954815434716433 0.037769312832681707637 -0.1595225639364276915 0.11889777237932633303 0.20801575187199597416 -0.11731135387845943729 -0.10877955015039605935 0.10564708006382739214 0.086317127372406141084 -0.045598857849258357666 0.023399787691021807501 -0.029076879249810359818 0.060501670382928557368 -0.24740526308422713941 -0.20583314190509247044 -0.22861649930682906295 -0.15624694623726986809 0.14556183209692497016 -0.14232657572140855473 -0.20633854900207326821 0.038164462671236874802 -0.26617549174454557814 -0.12076919358499375867 0.066762039423923308368 -0.079752700438633014612 -0.1040975753972640111 0.021842987095385908713 -0.049659695436441851635 -0.17345954823110820708 0.13310350414550686793 0.050260727680748192026 0.041527610293649805384 0.24041902376299778554 -0.14963272965225546396 -0.17094381975824982089 -0.23155899114188507881 -0.036328212960939451626 0.033042707422119961536 0.15532253055455805257 0.20303372396213206774 0.22140696372171114747 0.12273634558088365731 0.20105198869674761886 0.13197728616417703229 0.25854797617760633122;0.1747743573799000194 -0.24753538170545608121 -0.10831039806159836747 0.030286785727216079117 -0.015837114656458917833 -0.0089935606142381926964 -0.15801364465661699166 0.083451579992291538557 -0.20271181960606535211 0.0053532341561184949852 0.088178781434316205745 0.18402393142239883983 -0.13935440837291784844 -0.18038612331823661306 0.25105202991411290636 -0.0060367604534453944698 -0.17420870591668835559 0.13945620925264640144 -0.029387166356176441795 -0.23220975656813858112 0.050248051803849377861 -0.093408873230171315938 0.010837348699500455942 -0.17233368931453324491 0.1365887227507499857 -0.23687251502779321788 -0.15600732724189825262 0.24992130362202191751 -0.18389983477764865194 -0.12053945984257190271 0.22008135787527233207 -0.011496185835810763393 0.23659216958844492273 -0.24566036068465338382 -0.091059605885882133336 -0.16030553345463233184 -0.0046953199457566863889 0.15927705743217476786 0.1880743377725418719 -0.16811358884037244654 0.26461764258761327762 -0.027616639242394557668 0.08748889426536277103 -0.19918919132943049832 0.11361170168474461761 0.12967405178429913803 0.0071971058125678806852 -0.22294414137304577328 0.23671690173695658643 0.20318046815735912869 0.015764078255452715349 -0.017332921697658886656 0.23805892193317143568 0.02020843223859996457 0.18299281003924336431 0.26726267895531996555 -0.0087148377519568002297 -0.23814327528105880272 0.16713895247646184949 0.030284006814145687098 0.053996052208037013942 0.016327472066638253068 -0.21343886267788791944 -0.056727348760153166463 0.022446967012906601097 0.23877504631017304471 -0.063183462567001358323 -0.15714648961665964033 0.072581321276947718957 -0.25019119079599982935 -0.12765839535132031402 0.26770034686863664053 0.23962770101707786541 0.1239035368417661237 0.03839868724188696264 0.14074013564910242691 -0.10347021289202890104 -0.21216949786857300375 0.0095489715961427860252 0.2101104839388120149 -0.12003712178138677136 -0.018150018712337255555 -0.015415755042980650025 -0.01235173077438414535 -0.056918560286243938262 0.25855872554996650603 -0.23302094247230040192 -0.058409643002862603189 0.13368876773476165432 0.21159790107712422857 0.023458274367574239588;-0.0089167515153294723412 0.18501365673666869682 -0.061272028878147179187 -0.14301849753522163922 0.2546757617814962571 -0.24911214088264868605 -0.15650081733531684414 0.10504133430225891244 0.25228493270663487902 -0.04973481591227400106 0.24281843326046401166 -0.20116156811613053468 0.19317866309451245388 0.043723741659861037334 -0.0019004128349785760592 -0.000169847432102404139 0.19669828777909897921 0.08629029984400397868 -0.043385545526668234384 -0.073733557980950409361 0.19807692313880240209 -0.15371003731899435252 0.10557305528861819777 0.14715827442001289116 0.25717317196281125335 0.14195834671000037708 0.1823989822866969035 -0.24573683738742499449 -0.031168213923901396528 -0.16668416002947658572 0.078291653841847552719 0.17831582137800339183 0.19799112981382091525 -0.23602675521071533882 0.12343133847451827345 -0.2115626943974961427 -0.21102161459560583867 0.25671290386608425216 0.21538386423289190841 -0.024661109812781953354 -0.10815863976496765952 0.19573527986425465208 0.073362735468305781406 0.016327548407288748622 -0.24815169608607423601 0.045779931759793217327 -0.07255854090458183081 0.25770449357654134914 0.098713846570069041508 0.10634675397812111408 -0.0061115762228866055139 -0.18974680246511643755 0.059450672033646838333 -0.077404504388705552831 0.078055942286624394044 0.18769348174818062391 -0.26508626798959861182 -0.012574818708611034193 0.21591092236427952833 -0.11137330591167117488 0.096159087327268258361 -0.032974171306439488405 -0.18801331602324827807 -0.12904614451629581318 -0.22926409713493572928 -0.062322804974337640826 0.25004894058977478188 -0.15447551770634529444 0.19998459169902238486 0.14016065662290394522 -0.12490090446035108374 0.030912683092700170284 -0.018850126749104995083 -0.011939764782012246905 -0.049688369549850959495 -0.20539483356320936691 0.11273939336178651072 -0.12446158810409790885 0.049930143763100044707 -0.17027915461318934853 0.0095268541018891459565 0.23584399825656665595 -0.10639648670008476639 -0.12001714482775079074 -0.11466397277466512661 0.25343263211321109818 0.16891021061597097375 -0.043912979670626038631 -0.020527292664300055003 0.14169034938804286883 -0.063841376711193734139;-0.037321131596379786277 -0.19590737995080609313 0.12557481584128599161 0.038675207250602403053 -0.023392145779738166 0.14000450660111377066 -0.16836513739882810747 0.13678126329307899178 0.058515542944493598165 -0.18971366271654571678 0.15918329316024343312 0.16589161763033580255 -0.158356854395981822 -0.25072440867820677823 0.21379761221178961161 0.01974882989794557106 -0.1420834285912765671 0.06202901117903376893 0.12299324057292838897 0.087949841472856685187 -0.25673955555571204012 -0.15858039599211007364 0.15499666470792683448 -0.039706999614638645302 0.12675750550567266295 0.13571729127068912768 0.0054961635194215223768 -0.16446865794963608232 0.24804354166131817316 -0.23712915553826027781 0.12754050851414544532 0.26223802287772512987 0.15869718457141379631 -0.14311971917712135172 0.13033988973723018012 -0.20557112236943772543 0.23090970405884303496 -0.10344309562802460334 -0.22435790127168869779 -0.06217815475375190748 0.16239964873024700931 -0.17374363446197246819 -0.11622934410595207877 -0.13630301169367273206 0.057689112731683388213 0.26602528107476974828 -0.0107524078292789739 -0.013306602720891050687 0.11922046813646694496 0.24269437560026607681 -0.1724680462908909917 -0.1271607922751778752 -0.081124057583280478889 -0.096250741427307690001 0.18331250692541969927 -0.14450476323299157877 0.26289299847025060508 0.0074875412990497236879 0.10493801069101225953 -0.073651775126239160674 0.071398780117674309764 0.095166841136450380789 -0.14317632715145159339 -0.034344048017902403802 -0.22342487230140867238 0.17752571649935378062 -0.047582677915564350335 -0.052140734763467588841 -0.20539962240021744644 -0.16904681401472756996 0.22108732656930293881 0.26499013625877371192 -0.057930131224457087624 -0.26031499376180833316 0.063072835493819270902 0.18435085058613370768 0.14417596307481697626 -0.0265967907703446374 0.1990654130308766312 0.21603091544357511111 -0.15114568649149251467 0.064941537479420774481 -0.21428374904070940365 0.016288351450007444027 -0.014970909045434938056 -0.18645600650376506491 0.0090435879325962056224 0.048729438773883075597 -0.25442401642744494339 -0.090492420149224456205 0.1197216317969504451;0.16794784001332696555 0.24269530733461328054 0.14571836860277970205 -0.10862238560877866822 -0.046907331483608691314 0.049874223973951602173 -0.1745841746106442105 -0.13452449110458722381 0.27269100776394444852 0.023630538933042854327 -0.11868671364750754682 0.13941294784535365747 0.2127796951860917718 0.02437274689341531117 -0.1824124143181251323 -0.086150331696792523117 0.21341813000097389907 0.10524701647200705723 -0.19552877433474086244 -0.030834258200816911516 -0.27483239124929242925 0.031473839351174578982 0.26588278595243197699 0.21548994327200990395 0.11759639079035724696 0.26735452267531062409 0.029514370237152826731 -0.050401950552030866382 0.089908040197661270865 -0.101267801614991243 -0.0088656255426133451225 0.17540431225091632217 -0.25619477110799609987 -0.15097067349645493239 -0.12898890621501479803 0.25739506997378103215 -0.071513716111898759098 -0.0921030677798098385 -0.090787160067401312391 -0.035784302147230523383 -0.081785820461363414879 -0.072919271083583717119 0.09409925605010335814 0.22004973372462119374 0.11414955270851570579 0.062146508832512860343 -0.22637007502547432103 -0.26880244833420652295 -0.034858265535965590742 -0.10765635956951573327 -0.08043397167229236755 0.27973884266514004171 0.11226838383935780485 0.060382244799394857449 0.12278344863627732586 -0.025644741615657020567 0.0064563538733778211981 0.073657277132159360011 0.052202005554152636213 -0.2935261282430081109 0.077705648440571109536 -0.065038564449533362022 0.23536839481483176617 -0.17700790711004443789 0.18895043178603257439 0.26475024372103761472 0.07868284334662610513 0.17104323457095266248 0.021427616337216629644 -0.16387962671753220079 0.031022970653482098702 0.095094210093672901229 0.012397689882473899442 0.052204246922608533998 0.17294299890816913767 -0.046058640608377957038 -0.29116665808926500691 -0.08161565024210351571 0.24604786713137022369 0.18500235697195396845 -0.13621802611695837948 0.14129191686968789465 -0.12450754574211697623 -0.29220720735968508386 0.068366544974517801103 0.20261999292269142203 -0.038263981965480996228 -0.22678872579075848304 0.0014787579706217015337 0.012544167814017175011 -0.12294860183280939547;0.27008979461299970071 0.16945555953310570407 -0.055149558921031398284 -0.27565127045150356055 -0.1963781738502290708 -0.073822853039903282846 -0.054924978204734027643 -0.17015647060978733585 0.095752765943678250227 0.22632195280894501499 0.13301750785269889077 -0.055934584123488749474 -0.16850571202708108931 0.14524327514713508691 0.11572742328984882143 0.023848643551558686843 0.021148733227733439166 0.18166609450436183026 0.051619516473761055397 0.043829960217324298588 -0.14528281187214747705 0.13103715947370064843 0.1091772387123705057 0.13744797710410952551 -0.039372340237243612371 -0.20324126152884680607 -0.26059922406786523164 -0.22407479646395664363 -0.069770918392219494208 -0.087994982914022940035 0.0074744430559353187624 -0.26629735553838196349 0.11568290953832585655 0.068487783902920387757 -0.1600190795633724683 0.23511379183656511138 -0.27612830851344527527 0.095846936591160628027 0.18713342569911639579 -0.17379961353679085345 0.013219435105768524014 -0.05322090104017046519 -0.019076770074404152816 0.21702649364358603257 -0.14549638775977111194 0.0016676687123417461081 -0.23302316680373466595 0.17930319344980386043 0.12305439802388329351 0.21405625018494572886 0.12148942667825358976 -0.13130176026977616321 0.03983013170131378955 -0.1370214881078365976 0.15395648386284144227 -0.25564160476547653778 0.11481272004038023393 -0.23234738609413024824 -0.25923369106781568583 0.090756918296018340708 0.053298638607556569902 0.060112569901526358152 -0.18598869340277515705 -0.23607398553262390339 0.13843140492933925234 -0.031349387072397927323 0.04126166704187873846 0.073069178805332604676 -0.24868217318336155452 -0.082758889190271953118 0.020950136305855678737 0.059215983714392440851 -0.061483216085832056996 -0.24848711424242103663 -0.16685332707003230901 0.11708329650839588432 -0.12786881368936306447 -0.19514018688041917526 0.2560380925803739105 0.030407137200621252998 0.20217451444788120396 0.028562325411540225029 -0.21497672232475939502 -0.043405766243428865747 -0.16919067825479033873 0.13184214790504580894 0.10979713613500999281 -0.26555735076253184079 -0.07771471818125146036 0.0098036809926975079094 0.1204067861932612421;-0.0081619757179218418996 -0.07532901840223826806 0.16803642510160587964 -0.14685014039281571452 -0.12540104103620547393 0.12381470354626776531 0.036777932037727313619 -0.24541008512527698326 0.029949222284551896972 -0.22181019949079350262 0.19443994010475254552 0.17691983940074265669 0.046785997215633437496 -0.17523693685491067984 0.17805311301795395673 -0.15722927105812403714 -0.15170665749605652395 0.19778257848114888517 -0.16289994283015948873 -0.072183993682483238441 0.13163089052658002998 -0.048255572916022636265 0.19154296789925712163 -0.12325231594252873679 -0.033060518335062114015 0.075391658816771262019 0.047705045744651175532 0.045348136976071033721 0.059880422482599074407 0.19422233404476244023 -0.072893648354410575663 -0.22796251248858231953 0.15930040057313141211 0.23024007836489807088 -0.12704774356030307247 0.22263691443756430943 0.029893990243968836945 -0.22723462367325333866 -0.22318140193038260577 -0.25145072929298445397 0.095388365400516997306 0.16031223162063157339 -0.20551204828557823046 0.17746156953362984821 0.0007069287164080243803 0.24355207694391931006 0.098536041029664747648 -0.21184926226752517908 0.023370778964070842293 -0.19717445419709467291 -0.10087985718063278984 -0.24583443959357847985 0.095582975066173553325 -0.18211758336467492869 -0.14731524775512669367 -0.080210068727755476359 0.14215145604950268909 0.23286946769387500966 -0.1910264329237958969 -0.099820623954316872739 -0.19366415519826243874 0.023520348347664522121 -0.14186929699941658312 0.24948346024362239026 0.081286697349032058235 0.20269658167536497295 -0.1692939347528451266 0.25178467155276756939 -0.12860369168703844611 0.22951509971415373634 0.05306467408368787525 0.21683086021431921542 0.029715212423577885836 -0.053860227793620971126 0.057267448078747201778 0.13964975418970063115 0.2069942375788046407 -0.13482357124532573511 -0.059210294075839824124 -0.023769389823609626822 0.20243687014202790819 0.21506986026235969112 -0.1384035725423695129 0.19079863455693502061 -0.037442690250620296044 -0.13520336863531690064 -0.0079903126379526120265 -0.21170007222757525334 0.14980096527991201838 -0.061663648917844121611 0.014376081764814301056;0.17176558964425717169 0.25452612462226248402 0.10276344400040253457 -0.23647388164642518804 0.16785135202703502233 -0.18654452207697480581 -0.10814332019430220044 -0.069580995213132879051 -0.19121926632905694721 -0.14680995874610328067 -0.052370917146493715932 -0.20489172948682066178 0.13157090910781601978 0.15336153272773764278 0.07235857015197559583 0.15827522227229950946 -0.14808858101529426277 -0.18609015322541624937 0.03285620850155042405 -0.21379730397704593825 -0.055893859194562897641 -0.16655828713092177273 0.1317721520780029687 -0.012683201083890923572 0.17077915208056990148 0.11402867585607270873 -0.079522689134352259055 0.11570304912146540943 0.091702480503696837122 -0.25744392508954383469 0.073509152801686308831 -0.18489641546269777739 -0.055662125678526401529 0.11021127738774856575 -0.24936525627407371553 0.022540604751403299499 -0.17782256167690549398 0.097713511810826131354 -0.04964464164732869389 0.16388234814205654422 0.078126106931871164285 0.26474678609649371364 -0.25897409127629394954 -0.13197566890482723134 0.14539163165936264122 0.097575875253274838017 0.12121185851129595568 -0.10565035704853356635 0.10589480247866051021 0.10790194483734742714 0.043848467515380566695 0.23407628924690435102 -0.016157039347396460333 -0.13786779522457245917 -0.15612906623360908731 0.22457735301917511328 0.18809631691801570463 0.08556765237890069653 0.019732675840503421938 -0.18485330448446263274 0.033472892659979158747 -0.14214331947514374788 0.087881330400981852446 -0.1452726361171592373 0.20350163096039777799 -0.25009948009740295971 -0.20026873206017409279 0.11535929075575676594 0.14769596574731230776 -0.239548081437048338 -0.2330483154787403588 -0.094373273608210642149 0.23080140032740287248 0.25258408144268229556 -0.14384787336454973872 0.023081344775557798704 -0.21311168316511694409 -0.19836700851567926063 -0.19163862126123720753 -0.010537706262424964554 -0.0040891770568045214193 0.074585364180002486356 -0.1784090439337777112 0.070883220598082274932 -0.14690190560737059755 -0.036928430581092575036 -0.0014486622540864184383 0.20597206828054617778 0.15937568401046203759 -0.21757483707200137024 -0.16351853185453635309;0.22068271617320786571 -0.15105393234508426858 0.17027644124749272136 -0.10557197482973443292 -0.070216065266067551054 -0.080245489924737692378 0.18675667495829084697 0.1109352748227327573 0.085916954837933517952 -0.14214190940455292966 -0.26611751743023265293 -0.23566138404444747501 0.17573900376090573205 0.21373486691604914878 -0.2058310960968168235 0.11778483969303259193 -0.058138902393173083616 0.22444588574142812498 0.12179929226440870671 0.085740476911311744312 -0.17630255960266677517 -0.096295658753849142086 0.071404754842853801478 -0.22387730574294834041 0.24465584461134212702 0.22455605047029297827 0.018323545397207100655 -0.095494869636088566822 -0.042506935373329474137 -0.14417919897984127209 -0.078785182003733855716 -0.021596427930637828591 -0.21737422974498255002 -0.11054647071413531423 0.15928885482654922545 0.26007988718344970946 -0.17018938038140746238 -0.20424530913113933539 -0.16649440289719227848 0.23511285990168456772 -0.21750754384948323139 -0.15657418535124151271 -0.069676281281992921701 0.22898589549590586678 -0.080933605318532053641 0.26563366972365587415 -0.10514252517392318198 0.14415574819604651258 0.26605285105529458134 0.018535056592299599398 0.0064041567698336354653 0.15480030446659975851 -0.16158234030101670253 -0.06424977950611795996 0.20123409708081813063 0.082418345478466742415 0.040170269561401086844 -0.18712874789561004252 -0.073064954636998663551 0.073025262238243238144 -0.24902350990083316207 0.10084200644643381839 0.10275652536685572769 -0.070841563327482925949 0.024098261086249399276 -0.12117175673341598618 0.12329856697269771237 0.16306367673602778501 -0.19233078628481928285 0.0014152883394386733557 0.19065156782215034181 0.19803632067398324601 0.17731246064398356599 -0.12772064458043452806 -0.10061317411942702349 -0.15200406387417744747 -0.048197815742818228557 0.24112159043242972767 0.017010630405507203011 0.050680953539824526166 -0.00068118787114508313509 0.2665120246929967851 0.11135438639973710417 0.066437587149792573515 0.082756245257984792363 -0.10174099615365041205 0.20124084497534033833 0.058490760403890819374 0.10390480939603295718 0.13168563885771841782 -0.23015287849746587923;-0.18162629504681637727 0.095275867940367797715 -0.14625073083556244802 0.035890332481635131567 0.16428780879079787902 -0.11507077491903086597 0.082268492911653362532 -0.0027942514114003809758 0.045079944950334918663 -0.23425723493123692953 -0.29386795803736270871 -0.17259121317537318152 0.052755432484421188599 -0.13651609947710158233 0.17453119032541711264 0.077092697255086009567 0.22358408109684954623 -0.22534888506670128216 0.13056880774424511893 -0.099015610352251703929 -0.28448243510006016033 0.094369772867880910572 0.26137811470738947506 -0.14828655448603131339 -0.11789713803934806502 -0.16214662038745603079 0.23206954983199962195 -0.052327474585053664058 -0.10335738432389887653 -0.075519068261436200773 0.27837891027710010006 0.059765043704052611684 -0.027830444475200395715 -0.21466931084233806248 0.00235605393730015664 0.07233288261721200485 -0.018787014895185267377 0.17874199931760684223 0.18195276976522326007 0.17141998630067153964 -0.030990305847992651034 -0.12828504898902026721 -0.24929277196333435307 0.083042921279466552775 0.11767056059296891746 -0.016921363789363961377 0.023303910581907082145 0.082759808878168875101 -0.17744561946581358103 0.035388648495771966862 -0.050560467899040860418 0.15380623985883859484 0.15039504769896641645 0.14647980324228618287 0.10197094432869197034 -0.061852491570828796452 -0.041215427563019567392 -0.17602479394000489221 0.071381157566113531687 -0.22775010166200324035 0.01906660007264937215 0.171696766773298648 0.033401445263862961088 0.21007783216078201871 0.21057001021515281414 -0.067210662863668516054 0.11133687806025402423 0.02453253662197808771 -0.11681953695749978939 0.21465879465491544131 0.12505688429806313677 0.15919214982254051294 -0.17743210618360166775 0.22879419359518693433 0.25191902595345799787 -0.070770483511343462713 -0.072169550321349862365 -0.28165092107368044916 -0.20262990711960565671 0.094472293870233051138 -0.23387720805875597541 0.24501696338964673583 0.24328000215857098487 -0.093373267284489830375 0.10813018064515100836 0.16652706548357240623 0.002348712748174817868 0.27593223022051399651 0.18182136990831335166 0.053853082163965435014 0.021720438072763137427;0.090841594843998091369 0.080524711029972093068 0.24096712411262316555 0.22126524692309995634 -0.064947647997920063268 0.076323267834927252529 -0.15131773476168244863 0.026927795295336003079 0.0060728915028969926784 -0.23096284742757058894 0.2144219074990828533 -0.054497286842452509481 -0.17741903453154478365 0.11605773126434063003 -0.19290411019340691912 -0.2343264247168845571 0.20550146035988173243 -0.0089232497564366748677 0.22786168830186454004 -0.19970204682268224983 -0.1960017981852672786 -0.033192762257209115773 0.18718035640354255267 0.053429558960651928057 -0.19810375238889876837 0.083223070234687293589 0.22431100578483886832 0.046523356594797539432 -0.15166074342794946817 0.17752237652976732285 0.11515993723590957354 -0.1070862138175779632 0.039951720131865438301 -0.11916415259497920021 0.028317221951203602054 0.1304490804272819271 -0.16983251586449107928 0.066127590905070490757 -0.23687606990727694267 0.21481439830788590095 0.21982646911548256452 0.18670890750075175291 -0.22969965915013598745 -0.062765745436377876065 0.24440625670142818171 0.13487841980851450474 0.012953001970895843334 -0.16449523148518629956 -0.12973064201079392843 0.066753826912578778652 -0.15568866328716599035 0.20014554474576046195 -0.14794851247783971648 -0.042241105721352194269 -0.09246646246378741052 -0.11958885538361332945 -0.1660722140604794228 -0.0032692001061727354178 -0.012485169234560365009 -0.22907659003077487925 0.044044196260556014999 0.15748002729492435736 0.17181941710367995557 0.24493911945638233152 -0.13138033776350749315 -0.10205673929775073427 -0.24551968038174712405 -0.16302577635655965405 0.21336304140563883136 0.014159342090328054173 -0.1327860412325142514 -0.17674560274254619285 -0.13129370074189244955 -0.020887038527958971812 0.13723495730682561122 -0.13140025851681230717 -0.22811200857222141414 -0.058067817803442563218 0.12691955667870927216 0.010259897455083977907 -0.069670280782933455277 0.20765014498083383954 0.22332270222832273365 -0.070666907635125730813 0.090553311278934012218 0.03610479198184397831 0.10560154263191834367 0.2473216107220957416 -0.059811273168392048438 -0.24050654169305510366 -0.23902973670732563516;-0.12381642746157518753 0.066048335940674940403 -0.2384687318074389939 0.24351380950744042075 -0.11898984250442665167 -0.086004264154242199281 -0.2415031429185632017 -0.17874638893736227718 -0.1406727374001003894 -0.12054528434405382964 0.20169887351083035099 0.16578527692837988217 0.095193459604428765086 0.15881837615856886359 0.017208658487329324405 0.028393882766828720809 -0.15479311287971483924 -0.16841360844423483578 -0.23336359013930937922 0.18379441346272201718 -0.17545262745773385071 -0.02594169299660669184 -0.084770571839033748152 -0.073142018260407851149 -0.20188109282737456973 0.015056171809373991577 -0.072199819076493393366 0.017139891639525787342 0.20903771455527114798 -0.096502610378054368145 -0.14218473292873848313 0.10565143205871944942 0.066509639710219461972 -0.079201400026825047318 0.20362410092526936345 0.17666567767209634399 0.069138996651331510734 0.23004488483504920149 -0.075726492105710335734 -0.063771120632030775521 0.24987613285973611643 0.022984794572209765046 0.13841465719249651523 0.095055049934092639141 -0.14607377368560384157 -0.10987080555909015112 -0.062238196202753386099 0.12851300314123279001 0.14699139506866171212 -0.19930498653625577932 -0.13057947048087992226 0.16650263591623423731 0.014375336691707367442 0.14820874063054248482 0.1077536808582433836 0.019093820417063561701 -0.11571950120875544588 -0.040126060857962671247 0.16010924732968984108 -0.13758323962878638014 -0.17887092136142984655 -0.15572325452552274183 -0.20201497477811103387 0.18647342071117239959 -0.09321686604186035785 0.18423690845942269911 0.25245019351138298092 -0.2113708434751284948 0.019201401756799921228 0.031581593938285398848 -0.12418606334809277614 0.17711886281161906553 -0.14283661656377022453 -0.22046748895271545132 0.22558800844265100571 0.242604821288553818 0.23602906733140766038 -0.16142481692919827263 -0.10565657429263275446 -0.12455071441205527172 -0.03162091234306668025 0.17776144107590594046 0.24797288557764321504 0.14153356323511015469 -0.031059539494429678347 0.2286432458572510984 -0.05489446325222400308 0.22622210885512464285 -0.17429062043453549813 0.22001916960907827447 -0.21128650494542053351;-0.024501465898617888484 0.13062743475983837338 0.010341266784699220532 0.27747685442802744182 -0.027115614343657178792 -0.051547754949558356741 0.18258222091852674418 0.18332365240940082241 0.043762614556090304041 -0.0028899301830530065363 -0.08657146106509182315 0.082036234953405354209 -0.12968991837129209554 0.018436970891113915738 0.065084239519531766893 0.12646490105593541364 0.13310555008540822519 0.028560059513773529416 0.15962711161042783536 -0.042447416620718048108 0.24665518666416486049 0.19260792091427930695 0.16293927845068950644 -0.19044433417835290867 -0.14517236918935677581 -0.084597293959308872413 0.021761084075654902464 0.16318474868818921841 0.22822830046776435009 0.049755459294147937055 -0.23345840373705042947 0.24297694113111206748 0.20167605188612777734 -0.24614158256921561674 -0.0053991275998917301338 -0.062140924664131284849 -0.19146162514257536458 -0.059578591118276513772 0.084505970034776806132 -0.27517296113474754016 0.0064843203736308831914 0.043500627279655416924 0.12334518932311433481 0.10662544166945568669 -0.062526334950578493777 -0.10413120016705229576 0.071368994481702363597 0.1387036307297751514 0.20372520006608993426 -0.27292550949488980638 0.13611647046919428394 0.24042257905876013302 -0.093149716629058756934 -0.22235364459709580642 -0.19530926082175140146 -0.13234424664738278499 0.2092722361074120796 0.041638823516759404519 0.014277430203748650572 -0.14521317989457371844 0.20537793087085415289 0.017000662782993152672 0.18754681514515669782 0.091474506265801197591 -0.18334477312519550929 -0.11674589809381168137 -0.15834749374789500176 -0.080372163860254072776 -0.25691424487091563122 -0.25471457851287543361 0.014528257018353602642 0.27091462096031648787 0.1740074637833303739 0.18920553648197657726 -0.046472782356556753547 0.24586143783607197766 0.093054586636709998859 -0.25871087267274817112 -0.21838294780781750126 -0.11393636865874513797 -0.13499058695625543169 -0.037794163326651593338 0.088798458230250509882 0.064795852273633089413 -0.11017983953982413148 0.078755885171271716727 0.2726298361732574782 0.10964058615263655438 0.14191549234632708232 -0.018832615179108291165 0.23842491578262622887;-0.15689769085670457471 -0.021385695430713801135 0.23744003220743054028 0.21755630588988991714 -0.18799363825094256297 -0.10952855678883124946 0.23182330896395239583 -0.12784856910462655266 -0.23524927915067128659 0.20899097990263496016 -0.17590082024707776043 -0.18724354078972621496 -0.05898682188092753409 0.071709902991491714097 -0.16197645373992064499 -0.14610385759839236708 -0.25274405731009730314 -0.20359950359387354868 0.15980915130575493177 0.041070696529032571509 0.11207801510657788846 -0.041091309921353381951 -0.25391888066114448597 0.017498828360864596143 -0.15384988843978231188 -0.0961803951275959218 0.21360006273411571986 -0.12164577168567342058 -0.18077114644765088225 -0.21992949325026167617 -0.090050858706662642583 -0.081432203997302221588 -0.17157602278461983603 0.19419597806011040797 -0.13219736409224833174 0.093946254342779644819 0.041980750536707821252 -0.19165392383473975335 0.21760853659574688757 -0.013952599538278660785 -0.14099645672811184083 0.1461595308094659762 0.19522653588911215161 0.018264414464778163522 -0.099582681133674966212 0.12550264150117240725 0.15332664272001836347 -0.063565158517374570346 -0.2154794203915546269 -0.2478007690828069598 0.088126063772942755947 -0.11274443983427520632 0.20135245994109837731 -0.0033910235198291206749 -0.05990037573463045939 0.1866503672392569313 -0.043633241332484390407 -0.027440429350278589676 -0.1745721652647362343 0.14471655240905267892 -0.26335757491844780098 -0.041698436259062478249 -0.084591134253890226669 -0.041602767829979049596 -0.23710670407865991338 0.27417379453336110373 -0.21426294509724524984 0.15444860824999220861 0.2418236842173220047 0.23537057494873234176 0.049542458228384739227 0.077033609327137167466 0.06097942245888592766 -0.043416842631503541061 0.15229842005910348979 0.26066055344876881694 -0.032386667885015561763 -0.15994026172100830885 -0.082179838090722184818 -0.22164363546271079186 0.041426132381459312981 -0.19959181852317378625 0.14404826845428475579 0.15738144097920522824 -0.12562906345897156823 -0.020204626896560908683 0.040464231184975420208 -0.084089287521369862621 -0.11457409662841359921 0.12430053494942466807 -0.092264707689917097033;0.22167819866336146983 0.0022154404316993623995 0.082476950237084220574 -0.23790820641356469345 -0.022758733843915582989 -0.010790460655965667183 -0.054085009805151199047 -0.044896130216907588484 -0.22916676865795782003 -0.24207664845510640239 0.1074627941683388016 0.13244473483531196689 -0.20119646661193427151 0.24969821820053569872 0.1656555133532412738 0.073376374074795705504 0.23346318787519287907 0.026922698742576953168 0.13627841563706438732 -0.16715787128631695579 -0.25475845356863452418 -0.10144617582105414089 -0.2379767308541322901 -0.019052814230607097168 -0.17873707476353323242 0.15779052011925615018 0.19871188712004517196 -0.18004070118997006489 0.15836948386800767108 0.099400230387239330021 -0.16862324037719217396 -0.20229482059673270511 -0.01968499126418143258 -0.024925064404879734153 0.22706525905770100215 0.01548165097307163153 0.16693392579427315803 0.067687094375160447579 -0.21516544704714060665 -0.030337753348583261503 -0.065770053459782637506 0.072762590205353236406 -0.11676795850264144738 -0.043119878896261093493 -0.034666069041465401301 -0.074122681696600772883 0.23792240528338509664 -0.096940438280506802116 -0.22691475505373356891 0.23009745624019614652 -0.10012114262838156531 0.10117211015613215841 -0.08301832218510395156 -0.15692410560421982124 0.19100502182350556635 0.12810373388661636107 -0.18179195268409481523 0.22449678992286928314 -0.2449613711159371876 0.09712243322663406675 -0.12510557101016284154 0.10771383809914465701 -0.14347981162415149314 0.11348192458917050196 -0.21530232594532627832 -0.023558658649938293839 -0.11109621109884920687 -0.095972642514980111006 -0.027033722366406387483 -0.24039970532502943912 -0.23304856032858925485 -0.010428576573275220862 -0.26603699167722494323 0.11877104594269949356 0.16789322789322685958 0.016407825645053688429 0.19377213244470392617 -0.24124279474170470805 -0.12821594992591983653 0.20073069167226753606 0.095141983847169583899 0.10833865000319790883 0.0060487368463701222943 -0.14691401850769195137 0.24825796186991525016 0.070799244689491502847 -0.26250541453133058312 -0.041783761385758746987 0.17995873794487796116 0.013193102297211656282 -0.097780725190588543838;0.22396104446597089876 -0.1348926965860564875 0.13509279434709658974 -0.22271869945831698767 0.2506193054129637332 0.085889119021387266839 0.020030035312358921568 0.059182014554539218165 0.2380091184351711131 -0.1171956032796899333 0.038851216724597091579 0.24701657094121293179 0.040907108796720575983 0.078397050149326560908 0.19464824911105060856 0.17238304029251247385 0.27038887958013047008 0.10975561072274858665 -0.25980048202073952046 -0.074182778163360801882 -0.044117629584460756054 0.17094185327987695966 -0.20274738368624381502 -0.038359027460211227167 0.074466472871804009759 0.10266163970875095968 0.09514230219844899139 -0.15211445399853801286 -0.18054991935127853719 -0.091083131708075346089 0.1818070763321002481 -0.0577629237531045725 -0.083434553604871522503 0.17876551149934558071 0.18794709681519350397 -0.047082333949363772141 -1.7730574561948021783e-05 0.17598336026721955738 -0.17461221100921639482 0.20332955427520793545 0.062989884558669037573 0.0059439417416401862243 0.23054357057739860437 0.10993483788421025416 -0.18739918597803775779 -0.089072073508041887946 0.087426517251151053545 0.080171970682638829531 -0.012409700073865192679 -0.27567168646793660525 -0.0082561459142897059005 0.13980340707938951339 0.25084721566651485558 0.1825446487875963808 0.22258133666579327237 0.20335622990556256884 0.13666513271170915855 -0.10038563921710116911 0.099277171874239719673 0.082941871014447360322 -0.24994943705554051316 0.041273552484783364303 -0.015486345720028479866 0.15949071813760620775 0.16125016460849153632 0.21668881261075620404 0.040368223190011320867 -0.13483317154626930923 0.11566499700395292682 0.12868192462361255357 -0.23537978470300338629 -0.095609728957027850793 -0.012859839508332887581 0.1073823414920316438 0.18000149146936825217 -0.15202093559666296496 0.028356819127108592871 0.13474863704202297288 0.21840203963879073479 -0.13965863968265707085 -0.096084674057942132119 0.22528031350186814019 -0.17046007628520262744 0.0043172660963430118525 -0.25433462608546397732 0.18153856772234874817 0.25288541267541947422 -0.21352164113321167593 -0.02168616895417024501 0.072024522940720953068 -0.16131545105120007055;0.10304811947041164766 -0.23931935587757272033 -0.22183936214696595157 0.13309115635634408137 0.046714370862067984558 -0.041344416467737822585 0.086571590484396818144 0.24828337495565544479 0.20589767640134359894 -0.23379745931730255837 0.21905536375458098397 0.20193320271149081679 0.064259927456843946025 -0.10509179257510206651 -0.026711220895023254224 0.2288524648709393261 0.022812180648412370282 -0.1669336985907728943 0.12152358682077647745 0.11355335884376172029 -0.15060492671854266988 0.054583307796774803433 0.089512427152933962682 -0.19725879691758096968 0.042654435636790638542 0.086328593044134385726 -0.19790023510919144134 -0.18080023313507329052 0.14842195031670116223 -0.11851224344782200493 -0.20316306664087419032 -0.097377355657055714167 -0.075604929145816957003 0.047921397281624852904 0.21691866028974043923 0.25438653556540263834 0.21248873129147444194 0.11013016837346271959 0.014684911911567375548 0.20484045911392867456 0.24725550206265259345 -0.17584000374165256741 0.24185293788747083688 0.12369721478445984408 -0.092419479528072889796 -0.25501420833235777241 -0.051891057919718687474 -0.12962326994938239144 -0.020133833912656530496 -0.10517743048388548954 0.086406754881517389144 -0.1877315776508241274 0.043329560973125964829 0.2193284564930358671 -0.079978218815712445733 -0.2245487734501982191 0.044047571392012513369 0.21625357989258925384 -0.18656450841613025915 0.042772282640203766746 0.22329379523796330509 0.17429820828069464422 -0.037667708435917060528 -0.05977129459372455822 0.048156268518932753009 